float layer_weight[7840]={-0.024828367, 0.021036282, 0.06910985, 0.0054982975, -0.021198206, -0.00707449, -0.03714384, 0.07564483, -0.05513946, -0.0072082505, -0.036115132, -0.073081195, -0.042783424, -0.08393086, -0.011167489, -0.07839686, -0.021580182, 0.04186105, 0.036188893, -0.0018286109, -0.046360046, -0.014681421, 0.07213887, -0.080450006, -0.035425387, 0.045345955, 0.073384754, 0.047077335, -0.011982478, 0.0027493015, 0.08681571, -0.042331442, -0.05249768, -0.008321628, 0.026270822, 0.015041359, 0.068355836, -0.0370266, 0.08405533, 0.083889924, -0.080076985, -0.013804898, -0.04057282, 0.05175387, -0.054695252, 0.045133628, -0.07503076, 0.047817566, -0.024570666, -0.052010074, -0.043710455, 0.00017301738, 0.07463815, -0.050738417, -0.057058934, 0.025206193, -0.014162846, -0.06801706, 0.06678059, -0.035285905, -0.05718913, 0.05936619, 0.08100458, 0.06313381, -0.01829023, -0.08300138, 0.012641072, 0.03597652, -0.018229544, 0.06749057, 0.053385235, -0.024497628, -0.07281512, -0.013405517, -0.029376995, -0.013751715, 0.006810114, -0.048956435, -0.021093689, -0.008184798, 0.032854035, 0.050244264, 0.045428284, 0.056099884, -0.023226425, 0.06272533, -0.008110352, 0.00767383, 0.054042645, -0.030250907, -0.051303208, 0.058573954, 0.0064430907, 0.07854875, -0.060834065, -0.0424862, 0.050112627, 0.01994232, -0.03016413, -0.03145166, 0.032364912, 0.02622176, -0.07025738, 0.035181113, -0.04965982, 0.054312818, 0.081377454, 0.044815533, 0.08026364, 0.08365408, -0.06331615, 0.070363544, 0.01615484, -0.026761126, 0.015830316, -0.02684421, -0.053742707, 0.07591116, 0.0854575, 0.08469445, 0.035004735, -0.040066924, 0.055112083, -0.04076028, -0.010640502, -0.09355752, -0.004338488, 0.07671872, -0.071982875, -0.07686719, 0.017674316, -0.049433578, 0.043305833, -0.095368266, 0.041997682, -0.007043288, -0.05663887, 0.028289149, 0.020582227, -0.017823514, 0.049995627, 0.044617992, -0.03122993, 0.015586183, -0.08220746, 0.062332626, 0.04225829, -0.0659297, -0.0041054175, -0.07252276, 0.052202802, -0.052590705, 0.04036335, -0.071105964, 0.038585175, 0.033118088, 0.05249149, 0.049028937, 0.027666457, 0.044254124, -0.020458698, -0.0361434, 0.05106383, -0.04775991, -0.011117689, 0.05258148, 0.068283506, 0.0536109, -0.031120922, 0.00967221, 0.07238024, 0.068507545, 0.014648944, -0.038528185, 0.019940317, 0.042874552, -0.06999622, -0.031537756, -0.07107119, 0.085925214, -0.060415246, 0.040456258, -0.08492383, 0.004341148, 0.049257852, -0.056757543, 0.0808874, -0.03685814, 0.038481943, -0.045373864, 0.0566284, -0.021190166, 0.039023496, -0.08080833, -0.018457048, -0.019960232, 0.0022351444, 0.08240981, -0.06745477, 0.05709251, -0.028489798, 0.077059574, 0.016274698, -0.011659846, 0.078537874, 0.006984584, -0.0047215447, 0.04188735, 0.015761487, 0.05505546, -0.013742723, -0.04066571, -0.08515053, 0.046329297, 0.041411035, 0.009858802, 0.028180368, 0.043338902, -0.018377215, 0.033534035, -0.07679311, 0.08662441, -0.012199454, 0.05274848, 0.03407918, 0.011780404, -0.07501285, -0.039087046, 0.06580641, 0.0021370277, -0.0009008944, 0.017384917, -0.07093119, -0.028427955, -0.07804419, 0.0116555765, -0.03066231, 0.044679753, 0.040636323, -0.038756143, -0.04239621, 0.036581747, 0.039083816, -0.07034099, 0.023976177, 0.04996007, 0.03513722, -0.08142211, -0.057023928, -0.0029807016, -0.025286626, 0.017911367, -0.063883394, 0.006498009, 0.07971089, -0.034364115, -0.06648098, 0.05786159, 0.032744393, 0.051544346, -0.04220091, 0.079454, -0.005770527, 0.08500255, 0.007685937, -0.050785236, 0.0253155, 0.021926604, -0.07489905, -0.041436244, 0.0188201, 0.055968516, 0.002778858, -0.05688148, 0.027838081, -0.03664697, -0.05285008, 0.07442587, 0.0054281577, 0.059581123, 0.018705487, 0.072110035, -0.01835052, -0.05797463, 0.027303554, -0.0777521, -0.059265766, -0.024603121, -0.06985029, 0.062540434, -0.032500766, -0.049684938, 0.022999547, 0.0031164587, -0.04338436, 0.065638654, -0.04282386, 0.08692097, -0.013325408, -0.013851449, 0.001009807, -0.033182386, -0.007720813, -0.06965496, 0.031370297, 0.054606967, 0.040145688, -0.06459127, 0.052203752, 0.046220176, 0.07044584, 0.015107803, 0.028642505, 0.06048169, -0.08391643, 0.08160397, -0.030286659, 0.06526088, -0.035700083, 0.07041273, -0.012265606, -0.061384045, 0.021883985, -0.009526835, -0.057511006, -0.023570674, 0.07467101, -0.072567694, 0.024223369, 0.067371055, 0.07061188, 0.061431088, -0.0012621165, 0.04633184, -0.023378408, 0.08236235, 0.06392141, -0.013380987, -0.053585194, -0.062484745, -0.06983395, -0.058678407, -0.11144543, -0.08408169, -0.024194567, 0.050618157, 0.011963309, -0.08607522, -0.08773661, 0.021256208, -0.07560804, -0.028805058, 0.0008661366, 0.035874262, -0.0051545687, -0.01976633, 0.1403404, -0.035778444, -0.04395865, 0.012702421, 0.005022754, -0.02469964, -0.096105374, -0.05189759, -0.023027452, -0.063245974, 0.13212146, 0.0009192026, 0.01494152, -0.06491117, -0.0004682389, 0.045869134, -0.029030044, -0.028418798, -0.16622923, 0.0124980835, 0.055708792, 0.005639451, -0.013685059, -0.05960768, -0.053996466, -0.10882057, -0.06899359, 0.022507016, -0.09922478, -0.108973876, 0.05236172, -0.051775523, -0.029247887, -0.11180005, -0.087729864, 0.023198603, -0.020314297, -0.07816476, -0.18426336, 0.01661103, 0.15460612, -0.121578924, -0.074196585, -0.071384035, 0.037455104, -0.121791236, -0.09133502, -0.10537076, -0.16799065, -0.019941421, 0.07911816, -0.12864769, -0.12739414, -0.13171922, -0.037752997, -0.0911952, -0.0013634074, -0.07748531, -0.16789272, -0.12677057, 0.1527581, -0.059783135, -0.15543386, -0.03463396, -0.021857135, 0.056642227, 0.00033972514, -0.10012252, -0.05145245, -0.041794978, -0.0054073464, -0.040822674, -0.03832219, -0.15109928, 0.027986633, -0.02274713, 0.06437823, -0.036083445, -0.13104066, -0.16059157, 0.10098716, -0.097363904, -0.046038028, -0.055725683, 0.031277608, -0.12293861, 0.08443175, -0.0731776, -0.18535015, -0.16873008, 0.00014549284, -0.087582685, -0.15763715, -0.05168492, 0.009193915, -0.10440396, 0.04150055, -0.011890007, -0.1435368, -0.022634605, 0.064265214, -0.078059465, -0.14423461, -0.08407144, -0.047781315, -0.07498611, -0.12033384, -0.04141021, -0.031573, -0.08372457, 0.15907584, 0.0024228238, 0.0021172443, -0.056263097, -0.111030675, -0.054794803, -0.15810694, -0.10417805, -0.10607141, -0.09181012, 0.07161622, -0.008777492, 0.032935772, -0.010433079, -0.043975227, 0.032164868, -0.047803693, -0.013987914, -0.15802939, -0.13654578, 0.04200225, -0.10324011, -0.05943114, -0.0467064, -0.04648499, 0.027641946, -0.03132497, 0.05816623, -0.07274019, -0.11159012, 0.0092461845, 0.06532187, 0.018443739, -0.04318033, 0.03636328, 0.00067102263, -0.052056454, 0.022449356, -0.0625478, -0.015182672, -0.018254165, 0.015385841, -0.07089854, 0.03598163, -0.09370381, -0.06920773, -0.016451627, 0.045266032, -0.0062541016, -0.014002366, -0.03265074, 0.03261775, -0.093208164, 0.031642348, -0.0359605, -0.057451867, 0.073382266, -0.07426041, -0.028026894, 0.061202444, -0.04386078, 0.08618412, -0.06961767, 0.02882611, 0.080521785, -0.033522658, 0.0029825717, -0.008743018, -0.06395319, -0.028509777, -0.016868562, -0.053969692, -0.023597687, -0.0061725974, -0.08278386, -0.05119701, -0.023521975, -0.0020719096, -0.08443963, -0.016953185, -0.0288801, -0.022793926, -0.048088763, 0.035442047, -0.07749905, -0.0804504, -0.05374447, -0.06786191, -0.05013406, 0.07477992, -0.028072655, -0.033579923, 0.002979152, -0.07565655, 0.02236642, -0.08563742, 0.0033958554, -0.077157386, -0.028525759, -0.044256013, -0.026466575, 0.014555223, -0.0004125014, 0.0034678131, 0.05296614, 0.039594986, -0.023194656, -0.03795042, -0.047451288, -0.08659133, -0.0081863925, 0.05287484, -0.036232274, -0.02760034, -0.08416438, -0.030570993, 0.0056906403, 0.029425567, -0.055195794, -0.020810042, -0.023979003, -0.017318003, 0.04466478, 0.060785852, 0.08615102, -0.021064151, -0.033011273, -0.09265446, -0.106228635, -0.07392071, -0.05556687, -0.0649244, -0.10039728, 0.024183314, -0.040865816, -0.06579305, 0.049698275, 0.029492497, -0.012638297, 0.030448271, 0.03130321, -0.10172218, -0.02430312, -0.011091251, -0.09796895, 0.010748793, -0.038804825, -0.033675477, 0.030432165, 0.06342075, 0.11865287, 0.05124739, -0.09171587, -0.09475092, -0.09686046, -0.09375777, -0.047933783, -0.0592299, -0.14113364, -0.009941741, 0.011311958, -0.09130414, 0.054323018, 0.016294286, -0.072114356, -0.044945836, -0.034337953, -0.055661116, -0.11505026, -0.0081945015, 0.10322644, -0.056225173, -0.15807782, -0.016928485, -0.06499343, -0.073701985, 0.028721979, -0.13687529, -0.15499039, -0.068785265, 0.13125248, -0.08449736, -0.13519654, -0.0088259345, -0.185198, -0.125164, -0.045228634, -0.10576126, -0.2371806, -0.13052867, 0.05631008, -0.056439657, -0.13431872, -0.15816948, -0.10464126, -0.14601506, -0.07429149, -0.1324843, -0.14355408, -0.07566033, 0.19705234, -0.14232077, -0.19193621, -0.108527735, -0.18006238, -0.06999317, -0.057902552, -0.065218784, -0.24788737, -0.08561507, 0.21991488, -0.07782355, -0.21392013, -0.11264429, -0.10112669, -0.089279264, 0.019733422, -0.12740247, -0.3515416, -0.13512798, 0.2060349, -0.11833045, -0.22226647, -0.23262225, -0.18015556, 0.013293825, -0.100803256, -0.14795358, -0.29378664, -0.1622486, 0.21004407, -0.08691837, -0.1813851, -0.27395234, -0.17445627, 0.08008574, -0.009645074, -0.038731694, -0.1768926, -0.22501114, 0.09890358, -0.15178186, -0.33058724, -0.21283954, -0.3017759, 0.046565227, -0.03618606, -0.11193865, -0.2571592, -0.22004412, 0.12672436, -0.07704523, -0.38306904, -0.19433393, -0.16813053, -0.043696158, -0.089952834, -0.015104818, -0.22440656, -0.16698545, 0.14848371, -0.0869278, -0.2712108, -0.20788686, -0.28979748, -0.07083602, -0.08333634, 0.017654551, -0.17900865, 0.0048512644, 0.1056642, -0.0687913, -0.2688964, -0.20940699, -0.1437215, -0.07775541, -0.03598235, -0.017359776, -0.16158105, -0.037000887, 0.24281746, -0.16266432, -0.07384451, -0.19973615, -0.26440465, -0.038354177, -0.12789193, -0.15673125, -0.12509598, -0.112272546, 0.08656405, -0.115094006, -0.16259289, -0.2187689, -0.25843468, -0.12622789, -0.11549091, -0.15501314, -0.077198245, -0.13204072, 0.20917188, -0.0946262, -0.19046696, -0.17068365, -0.062801056, -0.0743716, -0.12288999, -0.048338346, -0.06310446, -0.04085986, 0.14275376, -0.079961605, -0.19104707, -0.086262025, -0.14350353, 0.010260488, -0.19238494, -0.07893023, -0.018420156, -0.11627588, 0.13187294, -0.04477688, -0.17242749, -0.17216526, -0.12718435, -0.063654065, -0.1333699, -0.07419842, -0.044435002, -0.06632276, 0.13437979, -0.072000846, 0.017641686, -0.0011076415, -0.047828626, -0.05677344, 0.08166361, -0.0074761407, 0.003911299, -0.0031753557, -0.06021475, -0.057766177, -0.13048592, 0.045962006, 0.05062456, -0.055604443, -0.03096174, -0.068877645, -0.053640068, -0.04064265, 0.032076903, 0.06499409, -0.097176395, -0.07964162, 0.073792495, 0.014823325, 0.0502628, -0.01114285, 0.02204559, 0.0677707, 0.028583393, 0.019983962, -0.03023675, 0.055071376, 0.052180685, -0.068391666, 0.07402357, 0.0747342, -0.046584006, -0.009734921, -0.014779076, 0.062354527, -0.07993829, -0.06178226, 0.0066405833, -0.082558185, 0.026149102, 0.00602895, 0.024233706, -0.036927965, -0.0106083155, 0.020698413, 0.024679802, -0.044571765, 0.072790675, 0.042913787, 0.077533014, -0.06387054, -0.08085776, -0.020811632, -0.053041022, -0.015543103, -0.03267393, -0.055238735, -0.041565716, 0.09036609, -0.056179624, 0.030649092, -0.035172127, 0.065526254, -0.07055153, -0.05781257, -0.08401451, 0.050807863, 0.08690175, 0.021903895, 0.032954987, -0.0013587023, -0.12295387, -0.02669667, 0.073503785, 0.05871183, -0.022423495, -0.042854056, -0.051171914, -0.061508145, -0.030162811, -0.05076183, -0.03649063, -0.038247436, 0.06940033, 0.045935843, -0.044580046, -0.064609915, -0.08817998, -0.045450516, -0.023710877, -0.034219783, -0.04269466, -0.06941812, 0.017779546, -0.115405105, -0.113926366, 0.010179455, -0.084982395, -0.07643666, 0.004602601, 0.032563698, -0.08307712, -0.010156209, 0.06594704, -0.14480259, -0.15721342, -0.068761006, -0.13801852, -0.040906105, 0.011586341, 0.04569027, -0.020483423, -0.10210838, 0.15864417, -0.14801456, -0.16290101, -0.028435944, -0.029900046, -0.21156536, 0.09986615, -0.004832462, -0.1282034, -0.03802423, 0.09002619, -0.064901255, -0.10185793, -0.12898473, -0.05506752, -0.06575988, 0.14851572, 0.06568207, -0.29388866, -0.13693361, 0.14576988, -0.2296045, -0.12363919, -0.14831696, -0.16780713, -0.1691036, 0.12841217, 0.037392646, -0.28259048, -0.09133909, 0.08502212, -0.22835183, -0.24611145, -0.281378, -0.118898824, -0.119357586, 0.14267704, 0.055316817, -0.2105978, -0.15110743, 0.14722599, -0.26429316, -0.14626749, -0.30236432, -0.14797647, -0.13870631, 0.18054666, 0.080629855, -0.37823328, -0.07628899, 0.121474326, -0.11770274, -0.2255868, -0.37010896, -0.11379968, -0.11602443, 0.15332954, 0.08408318, -0.28763625, -0.18574035, 0.16468665, -0.23327567, -0.20491537, -0.34750375, -0.2055025, -0.11963943, 0.06608839, 0.17960455, -0.28366092, -0.12945284, 0.06669465, -0.24478628, -0.22294395, -0.3555392, -0.08766192, -0.09464756, -0.033450328, 0.005775122, -0.29563534, -0.07981994, 0.13338679, -0.1095268, -0.23364687, -0.25199372, -0.10908516, -0.070983015, 0.12782909, 0.030371284, -0.12297647, -0.10951, 0.20868371, -0.19700786, -0.2363348, -0.37106252, -0.20039408, -0.17053726, -0.058288652, 0.019488884, -0.19673106, -0.04858521, 0.11201037, -0.20935576, -0.26965457, -0.28376013, -0.25391483, -0.19293782, -0.02126496, -0.0022521415, -0.13008827, 0.054729342, 0.15272063, -0.071560994, -0.17298219, -0.16055973, -0.11451815, -0.22192414, -0.08338021, -0.0667962, -0.17220758, -0.014836997, 0.30945602, -0.07207327, -0.22417666, -0.26246753, -0.10213496, -0.15696518, -0.095544055, -0.07222061, -0.03458423, -0.05387677, 0.17418979, -0.08314106, -0.18390855, -0.21355908, -0.20906577, -0.15519887, -0.15723592, -0.097753204, -0.13662736, -0.02907909, 0.21810739, -0.12792432, -0.121106274, -0.20934014, -0.20578413, -0.19892168, -0.1647419, -0.16791718, -0.02867934, -0.06150672, 0.094083056, -0.115129925, -0.07959525, -0.15271395, -0.09578132, -0.044132665, -0.20930302, -0.13319494, -0.0041646836, -0.049879838, 0.22281262, 0.014108453, -0.082100555, -0.100249805, -0.1480763, -0.15775578, -0.045629587, -0.04498018, -0.052026827, -0.035765503, 0.14310405, 0.037080318, -0.0065091895, -0.13266513, -0.07056024, -0.14726016, -0.017040469, -0.12070245, 0.010318192, -0.06374402, -0.03678847, -0.09434856, -0.114798985, 0.00059134245, -0.08786953, -0.0073883953, 0.0015647958, 0.030444287, 0.0062704715, -0.044790782, -0.03523111, 0.052252263, 0.025651662, -0.080693886, -0.0001616776, -0.02596796, -0.05394853, 0.038833536, 0.072759055, 0.08342547, 0.031838566, 0.063849695, -0.04576879, -0.014890023, 0.07568123, -0.06952668, -0.06440879, -0.011012442, -0.083283514, -0.0325932, 0.06718703, -0.047724657, 0.015189961, 0.05583944, 0.08418034, -0.062280584, -0.08288976, -0.011784284, 0.046715442, 0.013849669, -0.016276475, -0.08737443, -0.053762764, -0.0033585508, 0.053421285, 0.06923031, 0.010186002, -0.007724787, -0.09905486, -0.11011909, -0.017194882, 0.020332394, -0.06495069, -0.040104147, 0.024401559, -0.06852343, 0.00060787186, 0.12023562, -0.12570137, 0.0069683716, 0.051599395, -0.027232967, -0.07414506, -0.08430684, -0.07150171, -0.07613264, -0.017353537, -0.013721878, 0.032174222, -0.1778397, -0.007854386, -0.09890334, -0.012247535, -0.09005002, -0.16527498, 0.06359589, 0.07083042, 0.024471555, -0.071435295, -0.11432768, -0.07752435, -0.021309251, -0.10298364, -0.12678504, -0.050467428, -0.106364936, 0.13412838, 0.017123548, -0.039227523, -0.15164864, 0.06111574, -0.18099484, -0.09696911, -0.0428514, -0.096215636, -0.11744705, 0.06680178, 0.1450742, -0.08404522, -0.12670854, 0.008796243, -0.088308886, -0.09633823, -0.24148116, -0.1403483, -0.07140341, 0.1525759, 0.18347582, -0.15055309, -0.13303566, 0.08486706, -0.151792, -0.016411003, -0.14895514, -0.015782602, -0.0562324, 0.13076, 0.17604695, -0.08155703, -0.17869054, 0.042087477, -0.32576746, -0.04990649, -0.23896006, -0.08070631, -0.070182994, 0.10364581, 0.07991695, -0.26773214, -0.11072921, 0.082734704, -0.34611216, -0.07688659, -0.19778155, -0.14131877, 0.041433763, 0.13203558, 0.07466899, -0.15845421, -0.15790759, 0.02910861, -0.3169999, -0.06417014, -0.17544073, -0.10433356, 0.025795875, 0.12270707, 0.10236566, -0.23643194, -0.06002309, -0.08892193, -0.16081075, -0.06267054, -0.16102129, 0.029992007, 0.12145732, 0.1729539, 0.033699308, -0.11694834, -0.22088812, -0.03839791, -0.25618663, 0.01212932, -0.2733996, -0.057005137, 0.058443297, 0.13099873, 0.045578197, -0.17845097, -0.036174946, 0.032711238, -0.31621847, -0.014596548, -0.2925581, -0.03790932, 0.063092254, 0.096595414, 0.0029724422, -0.1178901, -0.057432663, 0.06767243, -0.32903212, -0.031100927, -0.23178397, 0.014591986, -0.02549672, 0.081414126, -0.0056460556, -0.16400135, 0.08529408, 0.06657135, -0.24746376, -0.051488258, -0.34025896, 0.004913714, -0.016763851, 0.04569873, -0.0010774425, 0.0048997006, -0.009333707, 0.19045083, -0.36375645, 0.024674665, -0.24369794, -0.027794972, -0.026457084, -0.0075852284, -0.08611708, -0.105928235, -0.015796619, 0.21878192, -0.31675076, -0.06717743, -0.2880918, -0.07562338, 0.07182638, 0.018824434, -0.048748933, -0.010056062, 0.07496975, 0.17823038, -0.19369143, -0.08905484, -0.23330152, -0.043678857, 0.041105445, -0.118078224, -0.082925335, -0.02317107, 0.060948577, 0.20299658, -0.29306835, -0.1313158, -0.22613889, -0.10491244, 0.19009846, -0.07187424, -0.25611097, 0.08628952, 0.03734205, 0.18674481, -0.14248966, -0.12778062, -0.3071868, -0.1534715, 0.13050844, -0.12302069, -0.10965502, 0.03604344, -0.0019060479, 0.21468434, -0.17492479, -0.06351726, -0.23240224, -0.11846574, 0.10392215, -0.26777434, -0.3160138, -0.007888635, 0.18244556, 0.044103473, -0.071011215, -0.03868933, -0.3018075, -0.14480026, -0.041832946, -0.12948085, -0.19046748, 0.0076104132, 0.099990726, 0.08585337, -0.09018856, 0.014689761, -0.07645527, -0.036468595, -0.13277842, -0.14002067, -0.11213856, 0.03841121, 0.076975636, 0.09896805, -0.00846283, -0.014388202, -0.16531971, 0.020961836, -0.088667884, -0.07992303, -0.0860559, -0.07507238, 0.10567259, -0.045769006, -0.027207473, 0.023845103, 0.017901452, -0.096205674, -0.11399781, -0.108836286, 0.0037884293, 0.048328634, -0.02157212, -0.06296028, -0.06443271, -0.059947643, 0.011537615, -0.068918765, -0.052569848, 0.020564377, 0.08086678, -0.011975393, 0.083004855, 0.02878116, -0.014905773, -0.02118092, 0.074694775, 0.044537358, 0.0007442981, 0.0020457134, -0.013766058, -0.009236433, 0.02070643, 0.045884185, -0.021133251, -0.021185234, 0.02108007, 0.04427291, -0.03828181, 0.0025929522, 0.0012968348, 0.047783174, 0.0040152054, -0.023100419, -0.028409427, 0.04234345, -0.076357834, -0.06940465, 0.04636163, -0.002927286, 0.119153924, 0.007019796, -0.12608562, -0.005894753, -0.044345524, -0.0885168, 0.020419782, -0.06489242, 0.05398586, 0.06567993, 0.032013405, 0.03896796, -0.15688393, -0.045557965, -0.023042725, -0.1435688, -0.18413833, -0.18826626, -0.065680265, -0.04344975, 0.096885055, 0.07531634, -0.12992777, -0.021621006, 0.0459656, -0.1572974, -0.16501828, -0.08538295, -0.019532926, 0.057569314, 0.13296583, 0.05809906, -0.05476877, -0.008856641, 0.018465826, -0.15911312, -0.22782846, -0.07615475, -0.17695782, 0.015614491, 0.17427066, -0.032617178, -0.15783167, -0.08745043, -0.076018505, -0.041657276, -0.18036298, -0.0700742, -0.1331927, 0.19031347, 0.14289977, -0.046895288, -0.0944102, 0.048374932, -0.011062857, -0.105152965, -0.27052015, -0.074154966, -0.14585611, 0.13958271, 0.119011514, -0.08884308, -0.023289235, -0.03813933, -0.122565396, -0.08542221, -0.20756212, -0.06089146, -0.040906873, 0.0887808, 0.11280834, -0.037834447, 0.037081957, -0.112647586, -0.1853988, -0.052251402, -0.18718503, -0.023284992, -0.097033605, 0.20048748, 0.12831293, -0.09919329, 0.012694147, -0.04714323, -0.12952477, -0.11300301, -0.15864392, -0.048583478, -0.022148658, 0.08204288, 0.12753639, -0.15191655, -0.03951859, -0.06956878, -0.2114969, 0.061629128, -0.105276704, -0.023536164, 0.13752033, 0.21324994, 0.09612664, -0.13308786, -0.02676345, -0.15663572, -0.18901359, 0.05834098, -0.17300309, 0.018369507, -0.03263712, 0.15865706, 0.029314576, -0.15130721, 0.027696077, -0.048449695, -0.26394147, 0.09931778, -0.18651684, 0.10328951, 0.06568526, 0.18410496, 0.06281837, -0.115686335, -0.024496075, -0.041461274, -0.29382563, 0.065956816, -0.25534722, 0.117101386, -0.027977731, 0.18739855, 0.03831566, -0.010247733, -0.06870306, 0.07199347, -0.29343244, 0.16414396, -0.23984393, 0.058728296, -0.027687633, 0.15829681, -0.016516283, -0.03442439, 0.10738853, 0.0129381465, -0.1766009, 0.15760061, -0.2258173, 0.038228907, -0.042214938, 0.02708604, -0.047027484, 0.029301412, 0.057076808, 0.15549101, -0.22197658, 0.037347704, -0.32393533, 0.022402398, 0.09028473, -0.033423003, -0.024011878, 0.033778384, 0.08774449, 0.10395139, -0.26065442, 0.01544152, -0.28796935, -0.004333962, 0.10197643, -0.11628726, -0.07257445, 0.09597714, 0.04881691, 0.067542516, -0.26284206, -0.016973948, -0.2296032, -0.10546836, 0.08617065, -0.07723801, -0.11929811, 0.114427514, 0.045873657, 0.092757486, -0.3611328, -0.11641268, -0.22463292, -0.060579892, 0.17589974, -0.19831806, -0.2668475, 0.13871315, 0.20105106, 0.0073123705, -0.263073, -0.08066648, -0.3151659, -0.054366246, 0.07394499, -0.22041284, -0.19145116, 0.118592046, 0.071109824, 0.09671021, -0.29004, -0.0736439, -0.38918155, -0.21348096, -0.09049127, -0.16075358, -0.29535985, 0.11065921, 0.14690924, 0.087124124, -0.16816658, -0.14392816, -0.2584285, -0.21935456, -0.17093642, -0.10839654, -0.12500323, -0.063373335, 0.15307611, -0.067780964, -0.073945664, -0.061048195, -0.22520368, -0.18894565, -0.09236029, -0.028021293, -0.07938067, -0.017222341, 0.046164494, -0.007776088, -0.025786353, -0.058161013, -0.16281234, -0.04147621, -0.09385681, -0.03767932, -0.09594722, -0.066894025, 0.09871397, -0.019563653, -0.08585293, -0.08767337, -0.049213104, 0.07625938, 0.032131687, -0.05460182, -0.06104362, 0.035412684, -0.056115218, -0.020558119, -0.08537184, -0.06764986, 0.06706246, 0.0010236411, 0.035174824, 0.0006388367, 0.10903199, 0.05097377, -0.029781578, 0.01599128, 0.06302162, 0.019393684, -0.101361655, -0.0716644, 0.02533797, -0.010175233, 0.057506137, -0.09899833, -0.06050601, -0.078730695, 0.012119468, -0.10466036, 0.011985757, -0.07324154, -0.04899328, -0.08222494, 0.07379802, -0.1126294, -0.18360268, -0.028777044, -0.01314759, -0.12175883, -0.12793331, -0.13804355, 0.0416129, 0.056336038, 0.11870706, 0.03575152, -0.20519187, -0.10668399, 0.04349581, -0.07309839, -0.20048946, -0.045496464, -0.11493354, 0.040738463, 0.1341578, -0.0020888024, -0.1140582, -0.120905034, 0.05208683, -0.20211081, -0.25908285, -0.10102891, -0.1737463, 0.025161207, 0.12912467, 0.035582837, -0.045842815, -0.087444164, 0.12544595, -0.061147124, -0.28371352, -0.17427374, -0.14318123, 0.12537895, 0.0703355, 0.09332699, -0.04390045, 0.059718255, 0.051041722, -0.12757674, -0.24345796, -0.16496365, -0.12104931, 0.17069687, 0.12326186, 0.005058087, -0.016614506, -0.11632552, 0.030231662, -0.018748188, -0.295179, -0.046489637, -0.15844215, 0.17146951, 0.1242411, 0.052959062, 0.0547183, 0.016160825, 0.068519354, -0.00045676972, -0.090964414, -0.0016472437, -0.1422565, 0.07204582, 0.08600259, -0.09447312, -0.020848509, -0.1406911, 0.08509802, 0.009429075, -0.11473459, 0.02993383, -0.13743338, 0.031745426, 0.035266224, -0.082091294, 0.058660902, -0.05549734, -0.052631438, -0.0032506413, -0.09953735, 0.001325084, -0.0154415, 0.049911946, 0.06469065, -0.21119514, -0.029674998, -0.06992873, -0.024935074, 0.062443487, -0.042721182, 0.041081123, -0.031185135, 0.06591456, 0.01990872, -0.24163176, -0.013267068, -0.08626934, -0.1695322, 0.054921843, 0.02083356, 0.01784377, 0.01626812, 0.07635616, 0.12327036, -0.22461294, -0.0643582, -0.054706264, -0.063016646, 0.027186552, 0.054755636, 0.12805167, -0.16094491, 0.02921486, 0.113825805, -0.2628531, -0.009091443, -0.071305946, -0.13985015, 0.12708864, 0.17125817, 0.065695085, -0.10505523, 0.05841605, 0.013035148, -0.14035861, -0.042152647, -0.02674085, -0.18675561, 0.12006772, 0.15836042, 0.13976328, -0.10549685, 0.09579942, 0.108231135, -0.03934147, 0.09110053, -0.07687294, -0.14776185, 0.05456092, 0.0038595381, 0.13845931, -0.057512797, 0.0009198709, 0.02725399, -0.088777475, 0.11556452, -0.049849708, -0.11094398, 0.060246933, -0.034822203, 0.094699495, 0.005151359, 0.08496669, 0.024590936, 0.057993144, 0.025184048, -0.012029077, -0.11198876, 0.039975416, 0.0007812255, -0.011153186, 0.067899495, 0.008919305, -0.11099564, 0.064871766, 0.14101183, 0.021756047, -0.1913718, 0.060404222, -0.19463241, 0.105946936, 0.048553813, -0.1051465, -0.03652212, 0.006265572, 0.085852176, -0.04550968, -0.057933338, 0.060615923, -0.23732175, 0.032649107, 0.01400074, -0.11703623, -0.17073932, 0.118844956, 0.17779651, 0.03668453, -0.1998036, 0.027562873, -0.25108904, -0.08418019, -0.021338172, -0.15028125, -0.25787526, 0.2745358, 0.18593234, -0.07717617, -0.12263306, -0.01663625, -0.27537626, -0.23225844, -0.111752026, -0.21943064, -0.16039525, 0.09737633, 0.29341853, -0.058745682, -0.23371923, -0.055815488, -0.30472666, -0.30987167, -0.15724471, -0.2742769, -0.31299672, -0.037850395, 0.15311503, 0.017098315, -0.22230144, -0.053057533, -0.17397912, -0.20853649, -0.118372776, -0.105402075, -0.14682232, -0.01733153, 0.21178514, 0.010580513, -0.13316488, -0.0014336196, -0.16001791, 0.036082853, -0.09757385, -0.11228448, -0.032243755, 0.013943975, -0.025616331, 0.077840924, -0.06179383, -0.02173713, -0.14029242, -0.0024558434, 0.011655289, -0.006423235, 0.03952089, -0.054014027, -0.060996212, -0.049853228, 0.06968635, -0.07360122, -0.061381783, -0.09693061, 0.032134287, -0.11021428, 0.107692555, -0.009480306, -0.0057719117, -0.09949442, 0.08359332, -0.0052034482, -0.09641808, -0.08720466, 0.0050647487, -0.018083593, -0.023427047, -0.004386032, 0.039137147, 0.012795835, 0.038012467, -0.1553985, -0.13384345, -0.09637509, -0.11547323, -0.03259571, 0.033957206, 0.0011361776, -0.13925858, -0.08136844, 0.1269139, -0.20187683, -0.17333086, -0.07825515, 0.01874291, 0.064177416, 0.23080552, 0.064570904, -0.23517142, -0.082190886, 0.03255127, -0.0089903865, -0.2113685, -0.105367504, -0.063131705, 0.10317224, 0.08940128, 0.004700867, -0.16201559, -0.05755941, 0.08663676, -0.15495971, -0.34347352, -0.01823997, -0.08420311, -0.008291437, 0.18159162, 0.031752173, -0.12587689, -0.13521263, 0.07859205, -0.106092215, -0.21745525, -0.08656002, -0.18057968, 0.13425139, 0.09025418, -0.07269087, -0.04938305, -0.10862928, 0.07617891, -0.017797576, -0.1961538, -0.11893141, -0.27114183, 0.12371671, 0.08540651, 0.012090641, -0.059711836, -0.055324536, 0.21847267, -0.023766367, -0.14819483, -0.08538161, -0.19935906, -0.002356262, 0.11104983, -0.07796878, -0.04255048, 0.0095228255, 0.13319615, 0.010758468, -0.11673704, -0.034275915, -0.17058614, 0.034055814, 0.13133872, -0.036620952, 0.13976863, -0.10364116, 0.14770585, 0.04200392, -0.13498685, 0.038850725, -0.18824394, 0.13716598, 0.09709042, -0.15223743, 0.030660901, -0.092282064, 0.100366734, -0.03232018, -0.028632006, 0.0704741, -0.06039621, 0.05321188, 0.05809371, -0.23308139, -0.014038687, -0.15757796, 0.07516748, -0.063884005, 0.07241541, 0.08145616, -0.03900827, 0.046922334, 0.05969199, -0.1966336, 0.07879898, -0.09010693, -0.022776006, 0.022035405, 0.17330994, 0.011088704, -0.07682171, 0.07308633, 0.06253121, -0.30196396, 0.05766462, -0.17566888, -0.018080553, -0.007032978, 0.27714518, 0.16485299, -0.11338573, 0.017917087, 0.133065, -0.27997372, -0.06893735, -0.12131663, -0.022312237, 0.012461844, 0.21299608, 0.04594077, -0.04648076, 0.07723064, 0.07890526, -0.32773578, 0.012149994, -0.18781282, 0.04130273, -0.037125252, 0.30305496, 0.20977972, -0.040550854, 0.058302563, -0.0074329604, -0.16140099, -0.012844801, -0.17368807, 0.04968467, -0.018122789, 0.18231237, 0.1873488, -0.02556058, -0.020139264, 0.09941747, -0.12322706, 0.04826974, -0.18797876, 0.03192511, 0.033233386, 0.05780296, 0.09765106, -0.045928705, -0.078856215, 0.068599254, -0.085061386, 0.08830733, -0.25572035, -0.010948579, 0.009255152, -0.015448414, 0.117212586, 0.09539348, 0.02427776, 0.043718338, 0.004670261, 0.06702744, -0.23261862, 0.040780634, 0.078035146, 0.014609458, -0.039893392, -0.020057393, -0.017125342, 0.025183292, 0.10770785, 0.051268563, -0.1649186, 0.019032696, 0.07636239, -0.18959144, 0.052709915, -0.093174644, -0.005331183, -0.11401929, 0.0335796, 0.21397723, -0.09803975, -0.0909177, 0.06871418, -0.2425995, -0.059415303, -0.15460525, -0.1491207, -0.20815033, 0.07051212, 0.3058165, -0.2355778, -0.14717238, 0.068971336, -0.22698367, -0.23429537, -0.2562064, -0.32598695, -0.3326513, 0.06757906, 0.3160334, -0.038398504, -0.21792968, -0.0037690194, -0.39239982, -0.20656669, -0.19483232, -0.18070142, -0.26993522, -0.005875079, 0.27094874, -0.16955195, -0.2955652, -0.072317265, -0.2977868, -0.17434907, -0.04604413, -0.1123723, -0.18769293, 0.037062876, 0.17240906, -0.009853078, -0.16272524, -0.014777545, -0.2097551, -0.003804526, -0.004703002, 0.015361214, 0.016985806, -0.1599366, 0.007854929, 0.077435814, 0.015107815, -0.06150132, -0.03770311, 0.077556536, 0.06700879, -0.057809964, -0.06345703, 0.041918926, 0.045729645, 0.024816629, 0.036043774, 0.01467376, 0.031951904, -0.0029605457, -0.041040283, 0.025508743, -0.04873764, 0.010738848, 0.00034411388, -0.092498586, 0.11323267, 0.029145164, -0.13221516, -0.12301747, -0.019590816, -0.033433773, -0.018258192, -0.026837103, -0.15406312, -0.087181784, 0.031803, -0.070387125, -0.09400771, -0.1502907, -0.05051581, -0.084095664, 0.053200647, -0.039544556, -0.29645947, -0.09465123, 0.17715377, 0.01676272, -0.18379639, -0.1853377, 0.024194935, 0.010649283, 0.19756155, -0.058372498, -0.30370507, -0.10258502, 0.04850931, -0.014957835, -0.17886211, -0.17928737, -0.20137103, 0.10755149, 0.09056427, -0.061161213, -0.15104207, -0.085994415, 0.19978502, 0.05756589, -0.18428406, -0.10783271, -0.17707533, 0.032313734, 0.16861215, 0.015351618, -0.10431787, -0.16442226, 0.09738804, 0.02099365, -0.18203628, -0.11077437, -0.14523599, 0.104208395, 0.039865717, 0.009948189, -0.033155195, -0.028816292, 0.12185818, -0.011856366, -0.19292417, -0.13135764, -0.17003503, -0.027771221, -0.0060666893, 0.008438071, -0.04196929, -0.13333379, 0.14507335, 0.00086449564, -0.1221389, -0.09079257, -0.27086082, 0.09951816, -0.09695999, -0.055531036, -0.019878622, -0.05428887, 0.17994262, 0.07655272, -0.05344543, -0.03850002, -0.14178625, -0.00074202695, -0.06806442, -0.15044728, 0.12427978, -0.15066378, 0.13134578, 0.0012206377, 0.015223292, -0.07286039, -0.23028941, 0.09510562, -0.05685908, -0.16375189, 0.14628787, -0.10367095, 0.068351954, 0.08560048, -0.037185404, -0.0018166358, -0.09996431, -0.012417333, -0.12299027, -0.12448621, 0.06282344, -0.10882195, 0.18711452, 0.010346048, 0.10374494, -0.028488187, -0.029299531, 0.042682584, 0.01484702, -0.2136368, -0.038045447, -0.12743954, 0.05856593, -0.023832116, 0.15758498, -0.0056756763, 0.12254947, 0.011723031, 0.051899575, -0.35952038, -0.086979665, -0.015386805, 0.15293781, -0.019782826, 0.11112305, 0.06149291, 0.02301393, 0.08666629, 0.1062859, -0.303655, -0.15154779, -0.07393036, 0.15880595, -0.13020805, 0.14636022, 0.16163069, 0.026532592, -0.03734062, 0.035135027, -0.19213665, -0.07971049, -0.12696326, 0.08317979, -0.067307204, 0.11226123, 0.082477555, -0.047312096, -0.006153089, 0.06388954, -0.1508102, -0.13471992, -0.17753081, 0.18479317, -0.041642837, 0.041144885, 0.18999445, -0.0006826569, -0.051769085, 0.091284454, -0.05974278, 0.010209707, -0.3495615, 0.19241762, 0.042308953, 0.00043702743, 0.05825515, 0.01583505, 0.048904147, -3.7354712e-06, -0.099164575, -0.024457153, -0.22205335, 0.04218236, -0.00095256465, -0.088958666, 0.054825082, -0.05659199, -0.00467943, 0.11488146, -0.033999868, 0.16242556, -0.18978132, 0.1355229, 0.036030952, -0.093278445, -0.03216334, -0.0831396, -0.113171995, -0.011095151, 0.065717354, 0.06852504, -0.23509993, -0.00876563, 0.027449394, -0.095302194, 0.064284846, -0.1627178, -0.08389073, 0.0077329874, 0.019051872, 0.14876144, -0.2652264, -0.07305013, 0.1301334, -0.14980724, 0.1030125, -0.2178413, -0.10603657, -0.26116812, 0.026640221, 0.31504086, -0.20670947, -0.11095805, 0.09823305, -0.33323792, -0.09294704, -0.19686988, -0.4073857, -0.39309606, -0.018194705, 0.2907765, -0.26370287, -0.1934153, 0.09438306, -0.19051339, -0.4065745, -0.27647075, -0.3113773, -0.23658185, -0.14283776, 0.32231432, -0.27496028, -0.17583923, -0.116255574, -0.2931802, -0.22025116, -0.094855025, -0.07636129, -0.10941904, -0.06803159, 0.16395208, -0.06382047, -0.18830648, -0.014317661, -0.24019141, -0.065462396, -0.101180844, 0.0013862024, 0.031092582, -0.09850607, 0.026709577, -0.05828812, 0.024349403, -0.013845836, 0.00042747485, -0.002496242, -0.024961406, -0.05973255, -0.07547291, -0.008625308, -0.06744472, 0.016522897, -0.03767625, 0.059026342, 0.024689993, -0.11135772, 0.03754549, -0.10312933, -0.099811815, -0.017553076, 0.029923923, 0.032696657, 0.077164225, -0.12862939, -0.13006675, -0.116767436, -0.078678355, -0.07973791, -0.0005638006, -0.0945178, -0.08166254, -0.037323438, 0.039403085, -0.17144552, -0.17567629, -0.117994174, -0.026823044, 0.04220759, 0.017676463, -0.11873048, -0.2624578, -0.20087397, 0.16348493, 0.025076551, -0.10766732, -0.07020978, -0.003086629, 0.06959247, 0.15357874, -0.087722935, -0.27687004, -0.1451321, 0.15984787, -0.0718864, -0.23999387, -0.1257506, -0.17431621, 0.061665967, 0.100016944, -0.027274827, -0.08248077, -0.18342763, 0.15214641, -0.008731686, -0.08986976, -0.061361004, -0.054745242, -0.02966089, 0.013390046, -0.15414926, -0.06338962, -0.1265612, 0.08988502, 0.061959956, -0.08771449, -0.12341063, -0.19307208, -0.04463304, -0.031342383, -0.157434, 0.012176623, -0.014041747, 0.019102849, 0.048173014, -0.08177458, 0.02149493, -0.12278095, -0.08523386, -0.08730688, -0.09283455, 0.115353756, -0.099215075, 0.049047295, 0.12415293, 0.035425577, -0.09254129, -0.21929437, 0.01347349, -0.1367448, -0.017370492, 0.12491689, -0.10660098, 0.08685894, 0.10082614, -0.03881423, 0.024602331, -0.20633459, -0.039459337, -0.12875016, -0.10332323, 0.046124022, -0.04872721, 0.03297734, 0.054703295, 0.014685124, -0.086447194, -0.20968835, 0.017145542, -0.19474994, -0.023541018, 0.09174825, 0.0069560204, 0.15386958, 0.101183206, 0.05345301, 0.10188376, -0.03087439, -0.07364533, -0.2030625, -0.09913909, 0.062565565, -0.03042323, 0.16294187, 0.0483861, 0.0036655872, 0.13410577, 0.017955348, -0.10840677, -0.019929387, -0.09318453, 0.09526445, -0.06986028, 0.13982347, -0.022427894, 0.10161445, 0.07962665, 0.19575858, -0.07199309, -0.00043137989, -0.39427108, -0.023206305, -0.08427531, 0.13057807, -0.11534146, 0.035230365, 0.0073521547, 0.17795952, -0.06800559, 0.09192822, -0.3472518, -0.17013595, -0.162352, 0.24269646, -0.15394096, -0.014321541, 0.07476009, 0.1277429, 0.03110658, 0.17754078, -0.10695617, -0.06309336, -0.31582576, 0.19308478, -0.17770113, -0.055846516, 0.14610144, -0.02815744, 0.04515394, 0.13144706, -0.04043967, -0.13405976, -0.39056066, 0.27195606, -0.030253079, -0.043308172, 0.11566924, -0.0792587, 0.07913469, 0.11902179, 0.06712588, -0.086167395, -0.26375163, 0.1254878, -0.04831927, -0.033717223, 0.08216402, -0.140109, -0.0017596964, 0.040802374, -0.024891185, -0.033719547, -0.2047014, 0.122981444, -0.0051577506, 0.002223889, 0.1207214, -0.055637266, -0.037043482, 0.036343858, 0.012354122, -0.035374913, -0.29776138, 0.10613447, 0.13130067, 0.010179951, -0.020478835, -0.2454256, 0.01654432, 0.10151143, 0.04461491, 0.09757302, -0.13061666, -0.01592879, 0.056095034, -0.04702198, 0.108849704, -0.21178323, 0.032160006, 0.014346614, -0.008505181, 0.2564542, -0.11439348, 0.08708799, 0.046186015, -0.14178632, 0.07662602, -0.2891181, -0.20731062, -0.19991527, -0.082295224, 0.330033, -0.255293, -0.14299953, 0.14917397, -0.20913537, -0.03080103, -0.212291, -0.34489134, -0.4060665, -0.20741479, 0.34229615, -0.2636439, -0.21979943, 0.0053773373, -0.17842294, -0.24286546, -0.19409718, -0.24431802, -0.20294945, -0.18253443, 0.28297564, -0.26225936, -0.27364337, -0.101020284, -0.3534718, -0.16310368, -0.09563049, -0.12344824, -0.17335953, -0.060068533, 0.22779568, -0.097888835, -0.07549387, -0.08503674, -0.25578716, -0.037524015, -0.10430735, -0.061608575, -0.095016874, -0.12748615, 0.05762924, -0.13180192, -0.0152886035, -0.045338143, -0.022830317, -0.004482365, -0.07128883, -0.022341851, 0.03180721, -0.07480634, -0.07147446, 0.072323926, 0.061508805, -0.077200525, 0.037268568, -0.09590401, 0.078107946, -0.02960013, 0.03580071, -0.085618176, -0.00983636, -0.022746556, 0.03748156, -0.036527935, -0.031583074, -0.07791657, 0.030529955, -0.09899044, -0.07347592, -0.11435594, -0.19608067, -0.14764428, 0.20373063, -0.11583988, -0.18505919, -0.029207693, -0.09150283, 0.07720908, 0.13358124, -0.10136735, -0.10035372, -0.10915821, 0.17224535, -0.15472987, -0.21215378, -0.10605883, -0.07695474, -0.009714971, 0.052982055, -0.018899348, -0.04676013, -0.16863646, 0.10013305, 0.123262815, -0.15445231, -0.05916891, -0.18778658, -0.048454463, 0.05040471, -0.020431295, -0.15264061, -0.04746055, 0.18959484, 0.03502942, 0.020659326, -0.019283127, -0.08036434, -0.014480675, -0.035711523, -0.120881595, 0.01177304, -0.035860594, -0.0052246265, 0.06599951, 0.048275463, -0.10434497, -0.10653073, -0.16304228, -0.1893276, -0.03900224, 0.070478775, 0.020968411, 0.054592643, 0.05813982, -0.03778115, -0.013696469, -0.1631431, -0.09733745, -0.25919735, 0.028640453, 0.05520823, 0.07487756, 0.105370134, 0.18779653, 0.08900914, 0.0022866924, -0.13515246, -0.16671088, -0.20976119, 0.06079922, 0.08817951, 0.0009892521, 0.0624937, 0.07732201, 0.048728988, -0.037586268, -0.118212625, -0.21319784, -0.37385967, 0.071144864, 0.097156934, -0.06285572, 0.05657645, 0.05838357, 0.025443908, 0.0525377, -0.1138798, -0.19335696, -0.26662567, 0.10585299, 0.17759036, -0.045004383, 0.037989475, 0.035250068, 0.057808828, 0.047014263, -0.20865135, -0.12359017, -0.1830506, 0.0667689, 0.18912901, -4.003077e-05, 0.013745022, 0.015921624, 0.015644947, -0.0067150434, 0.07727196, -0.22114351, -0.09632936, -0.11971142, 0.06643765, -0.047850747, 0.11004729, -0.012057709, -0.057956714, -0.099205196, 0.25573957, -0.16509052, 0.08730678, -0.26559335, -0.020652093, -0.12827529, 0.09024244, -0.11577532, -0.13372438, -0.06368561, 0.22681703, -0.12048629, 0.086217314, -0.14171985, -0.054931078, -0.18888898, 0.21610053, -0.22470108, -0.12868921, -0.05681906, 0.2100395, -0.03239338, 0.18836005, -0.027897637, -0.09099311, -0.2205371, 0.23457193, -0.080232866, -0.10762344, -0.016469114, 0.04590108, 0.06695609, 0.116800115, 0.11830187, -0.2498054, -0.22114733, 0.2678647, -0.11210756, 0.1144603, 0.09960534, -0.12320953, -0.062783, 0.040461835, 0.013091661, -0.12147362, -0.29808283, 0.20803198, 0.026243486, 0.032672927, 0.0858859, -0.17824243, -0.028907625, 0.11981778, -0.005297789, -0.21431628, -0.17280291, 0.082986176, -0.008678719, 0.033445105, 0.083890066, -0.20174015, 0.058653656, -0.03643943, -0.041904353, -0.07380991, -0.14920412, 0.16141757, 0.10096656, 0.065092854, 0.15154625, -0.18904684, -0.06598735, 0.040559214, -0.07963604, -0.14833064, -0.068228, 0.04102043, 0.05618307, 0.033562124, 0.1870593, -0.1966965, -0.09017866, -0.14742622, -0.12872444, 0.07490012, -0.10851192, -0.017995687, 0.188992, -0.012831829, 0.21881738, -0.32105792, -0.1442538, -0.064400405, -0.182162, 0.10962107, -0.09077958, -0.07321388, 0.020115416, -0.1875072, 0.07946056, -0.20830214, -0.2504748, -0.22758766, -0.15204048, 0.28881785, -0.108274624, -0.1454012, 0.07706451, -0.26888418, -0.23404925, -0.1483311, -0.07748528, -0.22172464, -0.10598131, 0.2749443, -0.20773214, -0.16311538, -0.010759309, -0.19152245, -0.21796162, -0.07900738, -0.08530502, -0.10674585, -0.20468776, 0.11571845, -0.20047896, -0.12084237, -0.059144974, -0.0929074, -0.13134877, 0.07077603, -0.12262009, -0.014023721, -0.09685483, -0.0042544985, -0.11893073, 0.04088661, -0.024278576, -0.07435373, 0.032074485, -0.047626395, 0.026392242, -0.048240807, -0.032465976, -0.08706329, 0.038749415, 0.11032974, 8.968201e-05, -0.043285843, 0.010566523, -0.020320669, -0.07371929, -0.10740054, -0.107390374, -0.13099216, -0.0635668, 0.054909524, -0.07855816, -0.12103261, -0.17390658, -0.082972266, -0.110655054, 0.043299586, -0.14495346, -0.09283482, -0.03203513, 0.16582376, -0.1223946, -0.22601293, -0.055388726, 0.010520339, -0.035550945, 0.12927109, -0.07657986, -0.13932495, -0.19362222, 0.15995474, -0.15682028, -0.092689715, -0.04787822, -0.059585027, -0.045549273, 0.052131124, -0.16621102, -0.13852045, -0.079416074, 0.07794462, 0.08463964, 0.052234795, -0.107714556, -0.038112972, -0.10839992, -0.03799722, -0.041211758, -0.073355116, 0.0076392526, 0.0839253, 0.019584188, 0.08397592, 0.027450388, -0.06373776, -0.11636906, -0.14311951, -0.08287732, 0.02004212, 0.0015309396, 0.10765575, 0.045328546, 0.05273448, 0.0030837308, -0.16494185, -0.30693012, -0.20044856, 0.0036714037, 0.06302991, 0.012610473, 0.029306345, 0.12072879, 0.13322377, -0.013388511, -0.20280872, -0.2257603, -0.24356598, 0.039061714, 0.08728133, -0.05900824, 0.073930755, 0.14729838, 0.17018972, -0.025171675, -0.18879703, -0.24830082, -0.20668457, 0.12774275, 0.080826014, 0.047647636, -0.0019610408, 0.15556006, 0.106396906, -0.027038129, -0.14851908, -0.2630227, -0.2102925, 0.07703823, 0.17480005, -0.032890685, 0.0030686187, 0.071391426, 0.096273325, -0.015526904, -0.19084756, -0.27340636, -0.29437387, 0.109064765, 0.2039681, -0.028835697, -0.020634882, 0.052370023, 0.062352497, -0.032828745, -0.14179191, -0.30010584, -0.11905216, 0.041748535, 0.18025404, 0.11099966, 0.020010766, 0.11793588, -0.082960546, -0.013213846, 0.18978533, -0.2841037, 0.11016217, -0.12571213, 0.13150434, 0.09060395, 0.022708952, 0.100056306, -0.19827986, -0.1899191, 0.30005997, -0.24448262, 0.14230993, -0.27384728, 0.11253539, -0.16797042, 0.09252031, 0.03214447, -0.097420394, -0.30694357, 0.3193595, -0.14779943, 0.117637336, -0.12315482, -0.12354862, -0.24539894, 0.007849379, -0.13024627, -0.027750267, -0.19410816, 0.19939137, -0.057971578, 0.06877926, 0.13422543, -0.07627897, -0.27315712, 0.16875876, -0.04256671, 0.022723412, -0.18530199, -0.011697425, -0.08426783, 0.031073876, 0.21296376, -0.2048895, -0.2237757, 0.25093377, -0.09328563, 0.035319336, 0.0074325963, -0.16271581, 0.058880866, 0.12833609, 0.13147525, -0.28418243, -0.124466695, 0.1519024, 0.016503947, 0.16202307, 0.11072358, -0.095233284, 0.028752668, 0.09453615, -0.06808345, -0.21535651, -0.1332016, 0.07692006, 0.14462502, 0.21645394, 0.13801366, -0.17343089, -0.096308835, 0.019559322, -0.0028417292, -0.34919998, -0.047137864, 0.016934404, 0.058983948, 0.094476946, 0.11140852, -0.17109963, -0.004608888, -0.104188524, -0.03838407, -0.25339228, -0.05963694, 0.053315826, 0.18036944, 0.15335675, 0.10570729, -0.10807086, -0.01570492, -0.14595139, -0.14511228, -0.28358376, 0.041678708, 0.092857145, 0.16584796, 0.022711176, 0.092434615, -0.14622723, -0.20451657, -0.20788814, -0.087495625, -0.10112602, 0.01527777, -0.12504232, 0.11280728, -0.13501832, 0.111930765, -0.2848596, -0.07693204, -0.23677269, -0.21477605, 0.08325842, 0.035864126, -0.19796321, 0.10253383, -0.10300174, -0.18310876, -0.08796633, 0.061499894, -0.15992448, -0.075881705, 0.12323677, -0.041072328, -0.17620954, 0.06295569, -0.13610685, -0.05540511, -0.095197305, -0.073807426, 0.0053787865, -0.01446576, 0.10246534, -0.16078727, -0.050168864, 0.087507956, -0.11358434, -0.11623989, -0.019501422, -0.11780846, -0.075092755, -0.04570466, -0.036061253, -0.047966693, 0.036017805, 0.04300246, 0.010460115, -0.0028019994, -0.06278236, -0.061332673, -0.051902317, 0.064821474, 0.05931019, 0.03394765, 0.07479464, -0.026589267, -0.050405923, 0.04058213, -0.07603626, -0.017403914, -0.08930368, -0.117112994, 0.022710733, 0.02926508, 0.15934666, -0.0971896, -0.14160904, -0.036314055, -0.018400347, -0.11297163, -0.17431, -0.13134763, -0.14096029, -0.03673186, 0.17781413, -0.17921825, -0.17254637, -0.046419565, -0.08130307, -0.07789484, -0.06882618, -0.13407367, -0.098066784, -0.19434333, 0.18016393, 0.037829418, -0.09201078, -0.12981297, 0.030492187, -0.114319906, -0.11276792, -0.033768002, -0.06607997, -0.12030633, 0.17265165, 0.041560054, 0.018977713, 0.028325047, -0.038783375, -0.16019447, -0.19032522, 0.010306064, 0.0060454556, -0.027426237, 0.15750323, 0.04534768, 0.10630728, 0.03598745, -0.15191911, -0.34186038, -0.23936291, -0.0066242516, 0.12634483, -0.061200056, -0.043172788, 0.053649373, 0.15495595, 0.01750055, -0.13705014, -0.38521641, -0.26039454, 0.11035188, 0.11344894, 0.09703828, 0.09916472, 0.048398506, 0.10635037, -0.013299035, -0.1874017, -0.2915832, -0.2462177, 0.13230348, 0.08629596, 0.058756597, -0.016155295, 0.013343203, 0.11620761, 0.026416756, -0.09311318, -0.26913556, -0.16523093, 0.10742357, 0.051316902, 0.0264874, -0.0387562, 0.0631725, 0.1396754, 0.07891303, -0.17777637, -0.36679375, -0.24867359, 0.1900644, 0.15991129, 0.010507165, -0.16792059, 0.016146872, 0.12436701, 0.0835017, -0.35558772, -0.37253043, -0.10087898, 0.19702213, 0.19427642, 0.048691723, -0.10834762, 0.065011196, -0.072011955, 0.006819043, -0.2799674, -0.32572594, -0.040425237, 0.14370589, 0.21575928, 0.11950877, -0.25629088, 0.057340857, -0.16226797, -0.11350233, 0.12242402, -0.38986266, 0.087650605, -0.14022787, 0.12407696, -0.035398327, -0.32110834, 0.15535086, -0.05431008, -0.25383747, 0.27079827, -0.17940734, 0.18442218, -0.18537915, -0.031666774, -0.15435, -0.17779605, 0.054472502, 0.04536378, -0.42305174, 0.28350526, -0.117942445, 0.11158527, -0.037156705, -0.06278783, -0.1814862, -0.048676338, 0.030423438, 0.059155006, -0.25287876, 0.16810398, -0.18944362, 0.12441488, 0.09633272, -0.22492751, -0.10505566, 0.15614687, 0.011881555, 0.18509157, -0.24504875, -0.19186608, -0.084456466, 0.06568671, 0.069881104, -0.22578712, -0.08766201, 0.10826083, 0.04908425, 0.097073704, -0.07396707, -0.09039987, -0.112367384, 0.08497626, 0.0627235, -0.13712858, -0.053629864, 0.111421145, 0.00535413, 0.225446, 0.030040342, -0.24344426, 0.021936622, -0.104848, 0.0372815, -0.25401714, -0.029774839, 0.14335452, 0.05686039, 0.1769431, 0.1063588, -0.10591888, 0.056464877, -0.026071226, 0.03108514, -0.27538267, -0.06101299, 0.02712124, 0.08900306, 0.19104324, 0.12713483, -0.21457332, -0.07758031, -0.20011476, -0.00058061094, -0.369917, 0.07805073, -0.0145127205, 0.077500075, 0.18079078, 0.13256733, -0.13769457, -0.19369307, -0.13885687, -0.07435467, -0.4342667, 0.1830073, 0.04233048, 0.088062026, 0.10709501, 0.21213992, -0.15310466, -0.17800538, -0.1339343, -0.04703443, -0.29228756, 0.2265742, -0.063258395, 0.09957063, -0.00524622, 0.1321621, -0.11317209, 0.0077347364, -0.27783355, -0.15297696, -0.28963432, 0.09060508, -0.079223245, 0.11167314, -0.14432429, 0.051832512, -0.06349469, 0.0379312, -0.022868857, 0.030238308, -0.009396487, -0.01578941, -0.06631736, 0.101575226, -0.23046783, -0.12991758, -0.04758816, 0.043638937, -0.13528295, -0.087976515, 0.07669454, -0.028540485, -0.07430271, 0.09146352, -0.1781857, -0.11697393, -0.06057811, -0.018194117, -0.082688674, -0.05548927, -0.0023907453, -0.09123614, -0.007133415, -0.048945524, -0.009778421, -0.06757626, 0.018797537, 0.010006593, -0.08596158, 0.039664775, -0.027273891, -0.0144000435, -0.0016314308, 0.030043082, -0.10555113, 0.07832682, -0.057614926, -0.1047935, -0.13365503, 0.047990188, -0.12841736, -0.11542548, 0.06276686, 0.00092206645, -0.15158334, -0.12517612, -0.08255402, -0.05569607, -0.02914967, -0.107756585, -0.06317151, -0.024206892, 0.15378788, -0.04631422, -0.073067546, -0.093338884, -0.033239022, -0.023984779, -0.061034843, -0.05778881, -0.06295794, -0.05735757, 0.1039137, -0.016311457, -0.046687305, 0.011160294, 0.060086537, -0.15979892, -0.11643166, -0.09679131, 0.057080537, -0.10868752, 0.12462566, 0.02186889, 0.13080448, -0.033832688, -0.10678858, -0.3415641, -0.09004129, 0.036026858, 0.01958711, 0.029864026, -0.012142116, -0.053600322, 0.1852833, 0.07781475, -0.07122934, -0.2978907, -0.21396418, 0.14466304, -0.01674054, 0.07480419, -0.04973547, 0.007836459, 0.09503165, 0.10788799, -0.09111165, -0.30534655, -0.16692685, 0.122606784, 0.016326606, 0.07440162, -0.0081212465, -0.012029119, 0.105475135, 0.016238399, -0.022020705, -0.3338266, -0.15127242, 0.14016922, 0.12509081, 0.092692114, -0.02614929, -0.049842525, 0.07749913, -0.025119063, -0.26166844, -0.20420481, -0.117449775, 0.25687078, 0.13140629, 0.0943278, -0.16052338, -0.14421412, 0.07788319, 0.084918, -0.25070068, -0.29588783, -0.057158303, 0.22750309, 0.16227823, 0.029183034, -0.25623634, -0.14305384, 0.0016077613, 0.07001903, -0.38381034, -0.19442636, 0.042353492, 0.19296455, 0.21773472, 0.13196246, -0.37270206, -0.02072973, -0.036222592, -0.1307242, -0.2760462, -0.2502046, 0.14794624, 0.15004767, 0.1285059, 0.07188025, -0.35724238, 0.20877208, 0.048166975, -0.30311766, 0.26289308, -0.13275884, 0.057913046, -0.10631896, 0.14826433, -0.071699396, -0.43530914, 0.19338809, 0.0458306, -0.37259892, 0.30118102, -0.1768825, 0.13547383, -0.12123998, 0.052246664, -0.072785765, -0.34594876, 0.15615971, 0.1547644, -0.35118902, 0.23759119, -0.09799162, 0.10407296, 0.077424645, -0.08305148, -0.07531256, -0.035596807, 0.040760856, 0.10167682, -0.30572549, 0.043973293, -0.08177787, 0.027592734, 0.14882122, -0.21193287, 0.06374612, 0.07612254, 0.07835771, 0.2349252, -0.21921813, -0.19602853, -0.053189702, 0.0494192, 0.21426551, -0.09089376, 0.017491706, 0.091603816, -0.07698985, 0.23579052, -0.11512082, -0.11621389, -0.050828595, 0.007776455, 0.19653665, -0.12265516, 0.004634247, 0.055558424, -0.045962334, 0.18185282, -0.07691913, -0.1346102, 0.03670149, -0.11646676, 0.02349836, -0.17080691, -0.0067921886, 0.04704749, -0.0582869, 0.10811393, 0.0554281, -0.17833306, -0.04010791, -0.046207562, 0.04878161, -0.18517978, 0.08554915, 0.10345337, 0.045930985, 0.123886496, 0.008684007, -0.107095286, -0.091574244, -0.22680554, -0.00802188, -0.18775582, 0.16744131, -0.06955012, 0.030896552, 0.06291413, 0.08911015, -0.16017424, -0.13255316, -0.25227872, -0.081160635, -0.33587638, 0.23163293, 0.03361643, -0.04912107, -0.007493474, 0.2569899, -0.11096848, -0.21201344, -0.15536188, -0.12878847, -0.32889232, 0.12609357, -0.1507019, -0.07482533, -0.06053966, 0.1671071, -0.22833134, -0.033696614, -0.13733292, -0.120479554, -0.22986278, 0.09909379, -0.056426108, -0.022967253, -0.22471938, 0.040782515, -0.061589584, 0.13161369, -0.14005817, -0.045739867, -0.044694357, -0.060730107, 0.050063804, -0.007593006, -0.23007599, -0.103239976, -0.06881262, 0.042592604, -0.0015024077, -0.014359266, 0.045441765, -0.1921198, -0.069623195, 0.032929208, -0.13412826, -0.06477889, 0.02538176, 0.11404668, -0.11529935, -0.012384572, -0.09801067, -0.018056147, -0.05470319, -0.09107119, -0.10286653, 0.04650256, -0.07105538, -0.0076765944, 0.052789655, -0.086207844, -0.011594239, -0.019992003, -0.09035895, 0.02408254, -0.09062922, 0.056260608, -0.05467825, -0.088819094, -0.022319768, -0.0070179836, 0.028182361, -0.06602302, 0.10127194, 0.021835215, -0.031702247, 0.008521053, -0.0148287825, -0.10597632, 0.039217174, -0.0191238, -0.10121491, 0.047278266, 0.12479332, -0.034132876, -0.15311557, -0.19470221, 0.07147348, -0.016108634, 0.008063679, -0.09493426, -0.028269324, -0.16954023, 0.1576151, -0.17289767, 0.07595674, -0.07616064, 0.06521167, -0.17148504, -0.0868684, 0.041706763, 0.04878308, -0.22699022, 0.0036923194, -0.20556189, 0.049615927, 0.016954357, -0.013335518, -0.24921788, -0.15414308, 0.044707764, -0.039540302, 0.019875664, -0.0032734221, -0.21020788, 0.043620437, 0.13771409, -0.19755472, -0.25107506, -0.14242822, 0.117440514, -0.06332341, 0.089247614, 0.020489238, -0.19374678, 0.03372463, 0.15911813, -0.112708434, -0.19649294, -0.094624616, 0.16437125, -0.057212077, 0.065972045, -0.06581446, -0.21916753, 0.080984116, 0.05622624, -0.17544293, -0.21933655, -0.19546358, 0.2399349, 0.070877, 0.032601673, -0.079702504, -0.16239557, 0.08376633, 0.09841374, -0.1893928, -0.116613545, -0.19018072, 0.24624391, 0.123783454, 0.14285058, -0.18108837, -0.09157749, 0.07898429, 0.058829084, -0.326863, -0.03823963, -0.046327684, 0.2983103, 0.18546158, 0.06367167, -0.28687534, -0.13415131, -0.0030787967, -0.038912386, -0.27247614, 0.03304672, -0.05476475, 0.20616502, 0.2231088, 0.17766812, -0.35016936, 0.042291105, -0.035409622, -0.13153626, -0.13837665, -0.06890231, 0.09833097, 0.16080399, 0.06462678, 0.12148514, -0.44775382, 0.1432566, 0.0037961586, -0.29373798, 0.31952333, -0.01599337, 0.09782445, 0.07160338, 0.019179784, -0.03905726, -0.31196398, 0.08597397, -0.007848414, -0.35226098, 0.25656223, 0.00016409326, 0.02313314, 0.091789454, -0.09496913, 0.045195825, -0.19965294, 0.16018507, 0.11272203, -0.3712553, 0.2473812, -0.028454985, -0.05003707, 0.12516923, -0.094154984, 0.12034571, -0.06616044, 0.018085312, 0.13242483, -0.35873404, -0.06054665, -0.0023702888, 0.09947098, 0.269207, -0.19961534, 0.0032735753, -0.051820043, 0.116133295, 0.20542884, -0.15220404, -0.18981601, -0.12443736, -0.04502097, 0.20770803, -0.13483498, -0.037753224, 0.15434024, -0.06422611, 0.20389766, -0.07993414, -0.26173776, -0.12818764, 0.08110318, 0.15710986, -0.08997248, -0.03926217, 0.11158342, -0.15130003, 0.0718406, -0.032261405, -0.30361822, -0.016509019, -0.048386548, 0.18070234, -0.02301313, -0.08509206, 0.053236246, -0.16511317, 0.047418218, 0.08885089, -0.20473637, -0.14577755, -0.024975434, 0.10352991, 0.031374633, -0.012616452, 0.035702433, -0.17137165, -0.021641854, 0.1378312, -0.14947462, -0.08284026, -0.071308374, 0.04745352, -0.12759784, 0.15247093, 0.040554322, -0.107483126, -0.0051749987, 0.16743, -0.23253264, -0.21847914, -0.18354553, 0.08507887, -0.091231756, 0.1668657, 0.070439845, -0.13194016, -0.16774087, 0.24214967, -0.14409852, -0.041397646, -0.12544806, 0.021755615, -0.1805689, 0.14184606, 0.031181442, -0.124149576, -0.12712786, 0.14789712, -0.057523713, 0.04162587, -0.19112796, 0.0011752304, -0.15931423, 0.16137981, 0.02289612, -0.07734527, -0.27685374, -0.00935048, -0.124340735, 0.049448546, -0.06290531, -0.11417713, -0.052499633, -0.040364448, -0.026432913, -0.040726006, -0.12624913, -0.053464193, -0.051976137, 0.1984067, -0.10548112, -0.078353874, -0.01026522, -0.0979428, -0.032409865, -0.06372629, -0.0477445, -0.07981228, -0.011284966, 0.12798755, -0.053433117, 0.050141346, -0.11327834, -0.049389254, 0.013756697, -0.123354964, 0.010865839, -0.0110653695, -0.07952929, -0.09037998, 0.063432224, -0.08267014, 0.10678771, -0.07872672, 0.093338735, -0.09793813, 0.036822904, -0.06995898, -0.06306797, -0.058154684, 0.06330214, 0.060369294, 0.028179696, -0.09496542, -0.06758958, -0.0004358877, -0.058603667, -0.12912086, 0.0977556, -0.094834134, 0.04103716, 0.0014530238, -0.06803544, -0.08260693, 0.08191598, -0.10117714, -0.055954024, -0.19359519, 0.03471896, -0.038231663, -0.0027613668, 0.029299006, -0.02438834, -0.16532576, 0.030540377, -0.11328973, -0.02150985, -0.0017928447, -0.04145306, 0.0076653203, 0.028902976, 0.08598007, -0.109764926, -0.3021374, 0.04090586, -0.13825652, 0.02607485, 0.060857903, -0.19815938, -0.07034894, -0.099788964, 0.08875168, -0.20131497, -0.013787468, -0.06981593, -0.15649754, 0.12737253, 0.017636906, -0.11861992, -0.020449437, -0.093411036, 0.09483556, -0.062871, 0.07642394, 0.031524155, -0.15256105, 0.06140415, 0.0601175, -0.104620576, -0.051739953, -0.13982922, 0.19901617, -0.19107899, 0.090362065, -0.05830291, -0.1998856, 0.09544156, 0.10087167, -0.16542351, 0.043244753, -0.16799277, 0.1670241, -0.032416586, -0.0037102988, -0.15393227, -0.13954666, -0.0010586424, 0.1581605, -0.20986006, -0.020354131, -0.16506147, 0.12753294, -0.03311916, 0.17022474, -0.13581727, -0.15714721, 0.067019634, 0.028643727, -0.31284505, -0.010586612, -0.05321079, 0.09399739, -0.010478845, 0.1614713, -0.25996876, -0.16027734, 0.060076542, -0.03837816, -0.16854715, 0.048311662, -0.0629511, 0.23215796, 0.05398343, 0.20825322, -0.24894944, 0.1152749, 0.025622342, -0.21010429, 0.026751973, 0.07193131, 0.06308119, 0.08573101, 0.064926535, 0.033488676, -0.32008132, 0.22199292, 0.02147747, -0.38228706, 0.27295, 0.13134111, 0.025284367, 0.017577607, -0.033006694, 0.026628517, -0.21237344, 0.16533564, -0.0551071, -0.3537223, 0.26008537, 0.020331765, -0.11069691, 0.031137776, -0.22258696, 0.032899056, -0.21604532, 0.056319166, -0.078010745, -0.38842863, 0.13516548, 0.020124681, 0.023511799, 0.15043026, -0.09146246, 0.057321247, 0.01614258, 0.05830565, 0.03627655, -0.33572805, -0.1577918, -0.04373134, 0.04106882, 0.25890052, -0.16182785, 0.09937121, 0.11893547, -0.07706733, 0.16775057, -0.16944951, -0.25029182, 0.03963718, -0.0514317, 0.22148794, -0.098507605, -0.105494216, 0.097965196, -0.0518039, 0.16741157, 0.00939971, -0.3204337, 0.012504665, 0.06350585, 0.09382425, 0.00078532926, 0.014971352, 0.2146181, -0.06516211, 0.098061204, -0.042215113, -0.25806007, -0.106066, 0.09314111, 0.08555138, 0.0046516606, -0.015381579, 0.14826307, -0.18071188, -0.10795698, 0.08868835, -0.26848212, -0.08295237, 0.047247536, 0.12821075, -0.05487822, 0.120157406, 0.14349899, -0.1174177, -0.032781642, 0.06706629, -0.14043614, -0.050799146, -0.013970615, 0.0884821, -0.077786654, 0.10757741, 0.06365603, -0.10269657, -0.12842087, 0.10797732, -0.11153246, -0.039932035, -0.027542274, -0.015540916, -0.05147215, 0.085762255, 0.13925888, -0.22812891, -0.05449745, 0.052573208, -0.2218604, -0.088448726, -0.009388788, 0.03135415, -0.08169973, 0.07824654, 0.03942292, -0.089457, -0.24500307, 0.17687476, -0.2542974, 0.06575514, -0.09860535, -0.060106814, -0.062110808, -0.0038942932, -0.12273359, -0.11895745, -0.2948143, -0.117597155, -0.17209445, 0.1155048, -0.23126465, -0.042118803, -0.17072128, -0.07573055, -0.070400804, -0.01445929, -0.1710389, -0.123357885, -0.11863817, 0.08206394, 0.043063205, -0.09676798, -0.036056194, -0.18623663, -0.16338743, -0.10359477, -0.107012354, -0.12672962, -0.11350362, 0.053123984, -0.08205107, -0.060107928, 0.014184896, 0.005648174, 0.019873368, -0.10718428, -0.07000763, -0.039811846, -0.08135171, -0.048126552, 0.012199849, -0.053981975, -0.07039515, 0.02406112, -0.0034147652, 0.012566505, 0.0028709078, -0.095323905, 0.03152153, -0.0056960685, 0.094914414, -0.062373728, 0.05077508, 0.03946707, 0.038489312, -0.029370653, -0.082975484, -0.007316458, -0.036486495, 0.041986722, 0.13243556, -0.087200895, -0.13213813, 0.0033063244, -0.09041289, -0.018546844, -0.0949374, -0.10212432, -0.074908994, 0.06019558, 0.106426336, -0.074966386, -0.00942239, -0.0888534, 0.08632243, -0.012347573, -0.0019548766, -0.057162207, -0.04280006, 0.033176374, 0.1378246, 0.04613049, -0.07645455, -0.24474083, 0.07014636, -0.25455034, -0.042111754, 0.029087476, -0.110080905, 0.13146956, 0.06731771, 0.030410465, -0.12777731, -0.07969352, 0.039165355, -0.25196272, 0.05868714, 0.161632, -0.12690051, 0.066256866, -0.15690757, 0.043469828, -0.18410513, -0.07059943, 0.0024316867, -0.25803858, 0.006828725, 0.08795591, -0.24437103, 0.042794075, -0.1855074, 0.18780492, -0.21061248, 0.0076603, -0.033940032, -0.057077438, -0.072255366, 0.16191699, -0.099000365, -0.015590552, -0.24003078, 0.22022347, -0.22030689, 0.019876963, -0.08230338, -0.11819021, 0.12181088, 0.21707496, -0.17568657, 0.00899624, -0.114274584, 0.17594601, -0.08440309, 0.16456181, -0.2273522, -0.020245388, 0.044021882, 0.15033948, -0.1418472, -0.003005427, -0.23288845, 0.16623285, -0.15315002, 0.12896928, -0.20117316, 0.079658896, 0.09630686, -0.11200443, -0.11207541, 0.1814271, -0.15593742, 0.024232037, -0.08111496, 0.1601805, -0.29957736, 0.11203536, 0.044035293, -0.32449594, 0.1070746, 0.22179757, -0.10527598, 0.0648281, -0.17305103, 0.033394523, -0.1672023, 0.10541435, -0.056000672, -0.31905305, 0.32378557, 0.1061903, -0.064603895, 0.09871755, -0.18205887, 0.07272569, -0.16231126, 0.175155, 0.0052352017, -0.4295743, 0.24543457, -0.0034023311, -0.054652788, 0.19315301, -0.14235502, -0.021802375, -0.003317701, 0.012679051, -0.13549238, -0.36044723, 0.113186456, 0.11602442, -0.17814913, 0.14436027, -0.13349338, -0.03631546, 0.049704615, -0.005927313, -0.022849709, -0.22333574, -0.19802023, 0.02272358, -0.046464253, 0.21571921, -0.17452466, -0.105139054, 0.10386782, -0.012468388, 0.07723776, -0.11733234, -0.2716766, 0.061633337, -0.004373059, 0.20750484, -0.0013974095, -0.07839742, 0.16235608, -0.04963936, 0.11909721, -0.07618993, -0.35675848, -0.038971025, 0.15396374, 0.06544423, -0.03790225, 0.054731753, 0.07814484, -0.21881594, 0.012769641, -0.01969923, -0.19434667, 0.009506223, 0.033736013, 0.14180945, 0.03434668, 0.10129441, 0.17066212, -0.1222245, -0.057010893, 0.009107938, -0.21736291, -0.08557579, 0.034865007, 0.04123329, 0.03376145, -0.018235294, -0.013713352, -0.0841008, -0.0732664, 0.06597302, -0.18734454, -0.0039409176, 0.06656393, -0.047197025, -0.011845707, 0.111391366, 0.08863524, -0.10661011, -0.23615913, 0.062338088, -0.17439333, 0.08153037, 0.06447543, 0.012570516, -0.039946914, 0.062139727, -0.05635993, -0.12124275, -0.22558942, 0.17932893, -0.14133127, 0.030942818, 0.071473934, -0.09907006, 0.02595761, 0.09223333, 0.014226331, -0.021962866, -0.2692264, 0.088804215, -0.13853164, 0.19737493, -0.011867761, -0.03991621, -0.014254801, 0.017497495, -0.056705184, -0.15305737, -0.2222446, -0.048839398, -0.15954532, 0.20097646, -0.23800834, -0.13934499, -0.14600584, -0.14538261, -0.08532316, -0.18015504, -0.22140032, -0.1382155, -0.009045793, 0.17590217, -0.09886113, -0.048157923, -0.17528875, -0.19576752, -0.0530271, -0.21715318, -0.054522917, 0.04879774, -0.016645623, 0.022622954, -0.10477132, 0.0058053085, 0.04213887, -0.025207236, -0.031227317, -0.1013374, -0.0740576, 0.061165817, -0.0040475726, 0.024952881, -0.031180218, -0.017430373, -0.0196492, -0.0375648, -0.014625251, -0.082845375, 0.009140059, 0.0037386958, 0.08262528, -0.09919687, 0.08087667, -0.10153954, -0.05680585, -0.010092943, -0.06757511, -0.046204392, -0.11295756, -0.092327885, -0.11853901, -0.027348174, 0.144827, -0.046671256, -0.15538795, -0.11417006, -0.10446288, -0.12597528, -0.07293786, -0.16343305, -0.089194894, 0.015872728, 0.19259584, -0.17465247, -0.056079235, -0.18642357, 0.014647663, -0.20425035, 0.023416124, 0.014117248, -0.039675217, 0.07357392, 0.07333808, -0.072936706, 0.010714473, -0.21178937, 0.0076355436, -0.12672853, -0.101499185, 0.017825346, -0.26371896, 0.05532475, 0.016025927, 0.03282648, -0.057589967, -0.08631422, -0.07258738, -0.21266139, -0.07075102, 0.029072592, -0.20922679, 0.13153236, -0.017209113, 0.092839785, 0.031529784, -0.024494192, -0.12697788, -0.10616717, -0.052636407, 0.15855663, -0.2970354, 0.08749948, -0.100509845, 0.1480718, -0.15131311, 0.07834299, -0.18875454, 0.008838177, 0.06396802, 0.08619132, -0.15798116, -0.0077260667, -0.17940982, 0.03293141, -0.24404007, 0.04281995, -0.2120419, -0.027219057, 0.0026539941, 0.17322285, -0.13336621, 0.1330187, -0.28428003, 0.056739543, -0.2626791, 0.081956424, -0.1157791, 0.046182644, 0.036430445, 0.10787571, -0.077662, 0.10024474, -0.30268076, 0.048091806, -0.25446582, 0.27942473, -0.19896692, 0.17041455, 0.03281626, -0.00020710245, 0.013629118, 0.13467877, -0.3043473, -0.05388216, -0.17545132, 0.19558416, -0.21857387, 0.21947612, 0.0673671, -0.18960716, 0.12315881, 0.1455954, -0.1432224, 0.059188172, -0.15080981, 0.09483089, -0.060352903, 0.18395695, -0.059894137, -0.3105036, 0.30367824, 0.10737972, -0.29529655, 0.13478792, -0.2736074, 0.060436353, 0.030001754, 0.06613474, -0.09956434, -0.39128545, 0.19724631, 0.1046431, -0.13037388, 0.18212979, -0.07967482, 0.045797613, -0.022189453, -0.07054408, -0.09169795, -0.25311652, 0.07872915, 0.10105424, -0.16473605, 0.15782699, -0.11424518, 0.028158726, 0.11105488, -0.0053256615, 0.09146764, -0.1250627, -0.17073654, 0.06302132, -0.05531642, 0.22546731, 0.025702436, -0.09280627, 0.017580511, -0.10306888, 0.063342944, 0.020844271, -0.27935317, 0.07355269, 0.04751243, 0.043768212, -0.07029666, 0.0076860557, 0.011858825, -0.07493672, 0.035789512, -0.005127219, -0.2230788, 0.01408779, 0.015441232, 0.098908514, 0.05555437, 0.0724792, 0.0029585925, -0.15139452, -0.08584898, 0.004150475, -0.24391831, -0.03615752, 0.1556318, 0.025814356, 0.027135286, -0.0033996026, -0.0014992709, -0.07525876, -0.023803795, -0.015786584, -0.08663267, -0.009960802, 0.077837296, -0.12536871, -0.0114875985, -0.004876506, -0.017316302, -0.12294518, -0.08415545, 0.042674292, -0.061106987, -0.019178716, 0.13853966, -0.11014478, 0.050674465, 0.042647295, -0.05456094, -0.108561344, -0.17151895, 0.020395253, -0.08420541, 0.14178964, 0.05467144, -0.10169618, 0.04721241, -0.03876109, -0.10629962, -0.14907113, -0.23290664, 0.05033529, -0.09432375, 0.1282282, 0.087365165, -0.067994356, 0.10895339, 0.058344863, -0.08166854, -0.026688525, -0.2718909, 0.04487599, -0.044479758, 0.23667237, -0.18159771, -0.14488465, -0.052819118, -0.017856847, -0.12159258, -0.04324873, -0.24133381, -0.13172744, -0.0648299, 0.1643658, -0.17264754, -0.09951683, -0.13011086, -0.094395444, -0.06780172, -0.20759796, -0.19279073, -0.14696687, -0.08278996, 0.2174249, -0.17625259, -0.0012617417, -0.09464483, -0.18865718, -0.053566996, -0.2000025, -0.15071996, -0.027066708, 0.026270693, 0.07243112, 0.020336138, 0.0018392061, -0.13313454, -0.08835822, -0.0061325887, -0.06304827, -0.078911595, 0.06524807, -0.044882562, -0.061903268, -0.10379825, 0.027064186, -0.08206029, 0.037451904, 0.09461994, -0.05628612, -0.035889637, -0.05831167, -0.019604947, -0.059527226, 0.023480888, 0.0119490465, -0.071691394, 0.017293008, 0.07787362, -0.04180529, -0.052871983, -0.1538897, -0.09781019, -0.10413866, 0.0810925, -0.08015615, -0.1751133, -0.052237686, 0.07209376, -0.08244702, -0.008008877, -0.26039383, -0.12025322, -0.008724485, 0.19618863, -0.15658861, -0.051513694, -0.24489401, -0.07308448, -0.33405265, -0.09249493, -0.09566534, -0.10851991, 0.06809915, 0.17223163, -0.20162623, 0.04303832, -0.26684418, -0.107081495, -0.11300517, -0.063756034, 0.11487585, -0.27174658, 0.14112005, 0.11363312, -0.08586733, 0.042396404, -0.27789456, -0.039382424, -0.116772644, -0.089527026, 0.026926707, -0.34309533, 0.08135193, 0.083360344, -0.14653116, 0.20125188, -0.13327178, -0.23565057, -0.070378505, -0.1443848, 0.041842382, -0.18178748, 0.15040764, -0.051437788, -0.10974333, 0.019696359, -0.041980688, -0.17901196, -0.02265515, -0.13250114, 0.1563379, -0.13141116, 0.07664286, -0.09119323, -0.12789963, -0.12261224, 0.089674175, -0.12117075, 0.08151052, -0.09029823, 0.100192495, -0.14045602, 0.14087911, -0.16749674, -0.09485675, -0.20453121, 0.18179731, -0.2264196, 0.074742645, -0.123274535, 0.087129705, -0.071524255, 0.08950873, -0.2786633, -0.16258088, -0.21638457, 0.23825349, -0.15310496, 0.10856009, 0.03561952, -0.044555213, 0.030062566, 0.128087, -0.2214022, -0.053036287, -0.2316009, 0.16334182, -0.08476819, 0.094826356, -0.037573796, -0.19914907, 0.19713767, 0.18019761, -0.31137878, -0.04364978, -0.10957144, 0.102721184, -0.01815548, 0.16580342, -0.12355421, -0.21535559, 0.16378413, 0.1798376, -0.24626116, 0.06883832, -0.10749149, 0.14704646, 0.012469699, -0.11578462, -0.020637564, -0.26494876, 0.11056541, 0.08495128, -0.27385876, 0.054870833, -0.10380217, -0.06691878, 0.11766095, -0.053343154, 0.08733515, -0.20654897, -0.0076995594, 0.10943639, -0.107919246, 0.20475473, -0.016110731, -0.050906803, 0.08062466, -0.072719224, -0.016546398, -0.03917027, -0.1496832, 0.09299477, 0.07086079, 0.14565708, 0.0011594141, 0.0010324419, 0.007828567, -0.053529, 0.05271881, 0.030196892, -0.14127907, -0.01798353, 0.066482276, -0.057228148, 0.09162893, 0.03490891, -0.08805304, -0.06409439, -0.047427665, -0.0124313645, -0.2048165, 0.01734984, 0.09092964, -0.07264887, -0.015825612, 0.0639085, -0.007099367, -0.12298165, -0.117622055, 0.087173685, -0.12243834, 0.049642246, 0.13809691, -0.09461406, -0.029263716, 0.14907497, -0.030217022, -0.051124934, -0.01878983, -0.051808544, -0.016929595, 0.051644564, 0.054252982, -0.08204526, 0.06047616, 0.05375984, -0.16156694, -0.10492296, -0.14802964, 0.00854377, -0.08277993, 0.13393433, 0.068455845, -0.087959, 0.016378129, 0.004611145, -0.104165256, -0.101648316, -0.062020924, 0.13101645, -0.07103384, 0.14029755, 0.1259141, -0.1983667, -0.007176714, 0.03152241, -0.17256476, -0.0769851, -0.20929472, -0.037929628, -0.06321786, 0.1103009, -0.09871979, -0.15936022, 0.07491262, -0.080383725, -0.20838344, -0.03377668, -0.15953708, -0.1283436, -0.05701278, 0.21829975, -0.116030745, -0.19251117, 0.12271133, -0.14564301, -0.20632152, -0.03333412, -0.20746379, -0.10675369, -0.022411019, 0.28346968, -0.19727854, -0.11915427, -0.12015918, -0.116881534, -0.07727661, -0.18778087, -0.1494196, -0.10565799, -0.10548733, 0.09908565, -0.13018905, -0.108494915, -0.05723624, -0.101725504, -0.041431483, -0.11885323, -0.1041548, -0.0037441344, 0.08385502, 0.07766044, -0.12719679, 0.0019525326, -0.024714319, -0.123989, 0.03115551, -0.091870785, -0.06684087, -0.024668781, 0.003382931, -0.100231186, 0.00016361836, 0.0726066, 0.023933534, -0.041567147, 0.013795061, -0.04311542, 0.043299302, -0.016098995, -0.028606186, -0.046053056, 0.033845726, -0.11919644, -0.0736046, -0.0568427, 0.07842715, -0.035096746, -0.061454687, -0.035977717, -0.14431691, -0.01563572, 0.17344455, -0.08311609, -0.07429927, -0.12507725, -0.07993164, -0.20723344, -0.11915831, -0.21954173, -0.07929166, 0.026523514, 0.2930732, -0.10103008, 0.030741218, -0.20135143, -0.13381994, -0.13547729, -0.1884814, -0.011281058, -0.17431259, 0.18159698, 0.21069779, -0.13972971, -0.057366922, -0.22281304, -0.04739459, -0.15540513, -0.08409785, 0.089719735, -0.23199771, 0.15836057, 0.21769093, -0.15516584, 0.10606461, -0.24001169, -0.11358843, -0.1572386, -0.122308284, -0.0077908044, -0.15190485, 0.038378358, 0.012540327, -0.17835003, 0.13780415, -0.104645856, -0.2950566, -0.026017811, -0.14166868, 0.14137943, -0.18157992, 0.20436978, 0.028258964, -0.21050127, 0.06842146, -0.13936318, -0.16687797, 0.0099794725, -0.14307663, 0.023636416, -0.06652191, 0.05553827, -0.06552171, -0.25985843, 0.107191406, -0.01735263, -0.30601954, 0.07783274, -0.08868137, 0.13802972, 0.02146422, 0.16466953, -0.07689991, -0.22784819, 0.006395957, 0.15721528, -0.17711827, 0.10857865, -0.16926463, 0.18769498, -0.021217318, 0.14122224, -0.17197593, -0.19799711, -0.04109085, 0.17493564, -0.23808657, 0.1195121, -0.13109744, 0.07751197, 0.081698164, 0.07693308, -0.22641775, -0.22044224, -0.12932341, 0.2186541, -0.11866597, -0.051221672, -0.14297386, -0.0992611, 0.073624015, 0.11327629, -0.284664, -0.1937677, -0.0722402, 0.18643104, 0.06542564, -0.052958734, -0.14019924, -0.114581786, 0.16854352, 0.08978226, -0.16559988, 0.010213504, 0.051421836, 0.10352578, 0.11813801, -0.10202577, -0.14323634, -0.09455429, 0.10557702, -0.035409264, -0.19381747, 0.050312847, 0.04721946, 0.055354208, 0.02424821, -0.0861937, -0.06147986, -0.027798304, 0.050309937, -0.013660382, 0.042426202, -0.021260465, -0.07664823, 0.04885042, 0.033054277, -0.14574769, -0.058618225, 0.0077208513, -0.110253826, -0.03912495, 0.067878544, 0.0077421474, -0.046320315, 0.14513311, -0.06155966, -0.04472374, -0.0169561, 0.04485086, -0.14801632, 0.10122611, 0.16503915, -0.080783345, 0.09365966, 0.09270014, -0.061394077, -0.078462966, -0.118133016, 0.036129482, -0.03259858, 0.05200413, 0.12886068, -0.13190705, 0.1104199, 0.13544804, -0.18645732, -0.015737085, -0.002764727, -0.09748431, -0.10747262, 0.060664393, 0.11663697, -0.20271815, 0.03353925, 0.059154645, -0.2236915, 0.040493153, -0.1418002, -0.038876254, -0.12363411, 0.044014096, 0.06347789, -0.17152879, 0.02457412, 0.0040960554, -0.18273157, -0.095741116, -0.13882826, -0.043527476, -0.09717664, 0.08199478, 0.102973506, -0.23037632, 0.07609485, -0.020189336, -0.27424648, 0.0076263114, -0.10740123, -0.03990122, -0.07022718, 0.12535004, 0.026968993, -0.19437605, -0.009903869, -0.045449372, -0.281746, -0.05125536, -0.11197705, 0.025476823, -0.12620324, 0.14882115, -0.01800307, -0.16312593, 0.07175256, -0.15418744, -0.27361944, -0.07751997, -0.12869328, -0.0533638, 0.009939738, 0.20934446, -0.21750505, -0.23811722, 0.1137835, -0.09759205, -0.19127803, -0.055675812, -0.16393642, -0.0887543, -0.09884869, 0.21740082, -0.2418184, -0.11934165, -0.022194574, -0.10543605, -0.04604233, -0.28918388, -0.03315308, -0.16294156, -0.04082776, 0.18089177, -0.17463058, 0.027683485, -0.10909482, -0.0376633, -0.07557646, -0.16123654, 0.006530282, 0.039787147, -0.006324343, 0.08444218, -0.08725264, -0.017782984, -0.009109362, -0.034171104, -0.047090575, -0.023515316, -0.09464569, -0.05055315, -0.06875487, 0.062302433, 0.01813732, -0.08296368, -0.06386325, 0.027311116, 0.0534245, 0.07576919, 0.010137081, 0.010068357, 0.01917697, -0.008726087, -0.06814169, -0.07512919, -0.04168251, 0.031866286, -0.023344733, -0.020501388, 0.041757856, 0.011555922, -0.056142416, -0.021712523, 0.10519465, -0.0861543, 0.060585584, -0.024921007, -0.16055086, -0.09236786, -0.019761024, -0.17924206, -0.065664686, 0.016324682, 0.18844783, -0.09158877, -0.07413274, -0.216618, -0.10863417, -0.1615534, -0.12640828, -0.075525105, -0.21149556, 0.15295865, 0.25341162, -0.096631914, 0.05481637, -0.22545993, -0.13627462, -0.14945285, -0.18916671, -0.018307736, -0.2145202, 0.07545027, 0.15867019, -0.26490608, 0.033458527, -0.14945404, -0.13070671, 0.020556161, -0.16143313, 0.0008125188, -0.09593086, 0.1814183, 0.19462846, -0.330749, 0.022738965, -0.19878286, -0.2208758, -0.011301161, -0.15737441, -0.028987456, -0.06678803, 0.085855834, 0.066778675, -0.36479208, 0.17911968, -0.17257911, -0.233072, 0.07739886, -0.26930988, 0.07699601, -0.026153391, 0.13168365, 0.053313557, -0.31219068, 0.10046691, -0.015880939, -0.16086894, 0.05815131, -0.16902423, 0.14743742, 0.0010239988, 0.05655293, -0.07193843, -0.23956816, 0.11591619, 0.03216441, -0.10666775, 0.007722165, -0.30435476, 0.109296195, 0.041504256, 0.09472249, -0.025503831, -0.3595585, 0.09563007, 0.15624742, -0.1198882, -0.005497892, -0.29464015, 0.07358412, 0.045570266, 0.087813266, -0.12557778, -0.21143292, 0.12215559, 0.19854778, -0.13108338, -0.030843455, -0.17429383, 0.050796486, -0.017115012, 0.09272701, -0.04387934, -0.10005567, -0.014252744, 0.18984507, 0.03457248, -0.06528026, -0.16869493, -0.00827229, 0.08359913, 0.050173983, -0.14157014, -0.024773309, -0.05935558, 0.15297312, 0.10755004, -0.13520002, -0.084402174, -0.0497696, -0.0066173305, 0.0017420682, -0.034348153, -0.06869486, -0.031221896, 0.24347156, -0.014175491, -0.15670955, -0.11727876, -0.07764443, -0.0028001084, -0.03899502, 0.05144404, -0.07195922, 0.02059787, 0.14106686, -0.0098631885, -0.013570877, -0.046560723, -0.04907683, -0.07734241, 0.06685658, 0.01848734, -0.085379735, -0.05800128, 0.12544106, -0.13066463, -0.18229677, -0.0800604, -0.0004299167, -0.10250858, 0.0055252784, 0.11729546, -0.11813096, -0.024049433, 0.093867265, -0.14922118, -0.06736712, -0.15812102, 0.0080901375, -0.013315082, 0.05023235, 0.055348936, -0.028541502, 0.00090133335, 0.15201747, -0.11620135, -0.024609854, -0.07948239, -0.022302935, -0.12056096, 0.013863279, 0.035473928, -0.16476166, 0.12436091, 0.00090998167, -0.13236876, -0.019148026, -0.11421704, -0.064848244, -0.1550898, 0.14648785, 0.06408027, -0.031904284, 0.006612513, -0.052079905, -0.2510716, 0.04584746, -0.04764713, -0.033597574, -0.0075324215, 0.14242643, 0.09942782, -0.06308903, 0.1130091, 0.039294347, -0.2744256, 0.013754855, -0.15711983, -0.09906537, -0.034486264, 0.098709665, -0.08763232, -0.13823876, 0.039728828, -0.106446765, -0.28398988, 0.059264895, -0.1078742, -0.059273962, -0.16571362, 0.13806227, -0.177261, -0.17018856, -0.014492117, -0.14528675, -0.17393407, -0.0710352, -0.035370298, -0.030941287, -0.086073324, 0.17433442, -0.24050052, -0.14852796, 0.033643812, -0.0768708, -0.12795457, -0.12041474, 0.011771864, -0.14292045, -0.08140513, 0.22837819, -0.21720466, -0.1285225, -0.044732116, -0.04673119, -0.14897695, -0.26997286, 0.06918405, -0.031642098, -0.048614547, 0.09526629, -0.0012618436, 0.012813333, 0.0056293756, -0.038991686, -0.06242486, -0.13878873, -0.06796481, -0.092205815, 0.04541515, -0.04615985, 0.022024745, -0.01442947, -0.023421554, 0.04632417, 0.05072045, 0.005166912, 0.031594817, 0.06562782, 0.04464345, 0.054430764, 0.038038112, -0.0061353785, -0.003695741, -0.04322604, -0.03957768, -0.087334394, -0.00021826185, -0.06861365, -0.012263565, -0.02876338, 0.09798566, -0.055077717, -0.024003373, -0.024299847, 0.055198852, -0.03864503, -0.054523047, -0.12870564, -0.03931724, -0.038859386, 0.13203013, -0.0814917, -0.13176739, -0.018919138, -0.005147419, -0.12705122, -0.13019739, -0.16832395, -0.10894562, 0.07129628, 0.13220023, -0.16010204, -0.039009094, -0.11025911, -0.17026831, -0.25659454, -0.13407823, -0.051085383, -0.075380586, 0.051978614, 0.23489967, -0.22228308, -0.046842508, -0.15766363, -0.19398819, -0.09931979, -0.1327519, 0.07003802, 0.04644358, 0.08716355, 0.14106245, -0.1185245, 0.000798632, -0.18741173, -0.098738395, 0.013477798, -0.08744191, 0.04340033, 0.021185568, 0.03462823, 0.092661984, -0.32500473, 0.050463296, -0.28333545, -0.16338517, -0.031405788, -0.1066039, 0.10159903, -0.0401384, 0.13217184, 0.17968185, -0.29292828, 0.06775608, -0.092503525, -0.123962246, -0.0022572412, -0.1379575, -0.0063591124, 0.07222521, 0.10982505, 0.07171306, -0.22832969, 0.08764497, -0.13877109, -0.18607393, -0.026170105, -0.22869946, 0.07856931, -0.031796385, 0.073779665, 0.03933202, -0.19226149, 0.1227255, -0.013143962, -0.03154193, -0.0717216, -0.21050079, 0.14615269, 0.00231631, 0.16459437, -0.07456936, -0.15095188, 0.1285334, -0.0063825976, -0.09074089, 0.014825663, -0.2070084, 0.18652533, 0.01012782, 0.1293953, -0.06574722, -0.09070466, 0.08208512, 0.14109755, 0.010720145, 0.016465997, -0.18680099, 0.12720929, -0.054077424, 0.007392997, 0.015353096, -0.20111412, 0.065479085, 0.22303191, 0.0013305038, 0.06790348, -0.15040801, 0.07413178, -0.0410752, 0.0073096766, 0.00091635203, -0.098231934, 0.0019382738, 0.19042931, -0.07430832, 0.06147908, -0.010717755, 0.042788763, -0.08207614, -0.036024436, 0.0011197447, -0.12824722, -0.027471477, 0.15914898, 0.048473973, -0.08818391, -0.12547122, -0.020962005, 0.050962046, -0.0635291, -0.010908175, -0.03334263, 0.091173284, 0.110282205, 0.004383859, 0.0072938544, -0.08612126, 0.030193385, -0.048077423, -0.016991105, 0.1000652, 0.038788214, 0.08594041, 0.06940163, -0.07485472, 0.00023102803, -0.11857818, -0.08749024, -0.020705184, -0.01712772, 0.10626554, -0.11104764, 0.112424254, 0.0888563, -0.124170244, 0.003526128, -0.123155706, 0.035143558, -0.017404608, 0.16859166, 0.14911947, 0.0322238, 0.012184268, 0.07990133, -0.13361606, 0.003018717, -0.03990047, -0.02627598, -0.06630642, 0.20661923, 0.09884535, -0.06476854, 0.0357119, -0.018759985, -0.16052617, -0.042142667, -0.043123946, -0.0066984347, -0.020753916, 0.10757292, 0.03911893, -0.09611823, 0.003976652, -0.04239941, -0.22709547, -0.016660953, -0.019785458, 0.021485982, -0.03311298, 0.15614857, 0.015506309, -0.060012728, 0.10239059, -0.14120845, -0.14297025, 0.08836483, 0.007118624, -0.16888264, -0.08812308, 0.13022143, -0.164309, -0.06349466, 0.02685097, -0.13102272, -0.19344586, 0.012587523, -0.004379707, -0.1423515, -0.13901483, 0.17618787, -0.20138696, -0.14609672, 0.03787576, -0.2205191, -0.25850335, -0.025122305, -0.07657878, -0.048409797, -0.07402105, 0.111160874, -0.15129732, -0.034338985, -0.0019187115, -0.21582533, -0.18912196, -0.18222599, -0.027738541, -0.11526871, -0.045671936, 0.17672776, -0.2305315, -0.07867901, -0.043032706, -0.109059, -0.015467242, -0.11677917, 0.056325432, 0.07614117, -0.055850465, 0.050741535, -0.021220079, -0.059953764, -0.014223608, -0.006396018, -0.07798843, -0.04457029, -0.013553814, 0.016271375, -0.038064014, -0.0442616, 0.051890295, -0.022279035, 0.059039284, -0.068887845, -0.01868094, -0.018257989, 0.012831361, -0.073306285, -0.0609704, -0.089093566, 0.029230017, 0.07196443, 0.07079444, 0.06971132, -0.040272456, -0.086132295, -0.07094469, 0.05467787, 0.011036336, 0.00017988312, -0.049421024, 0.07851182, 0.057951074, 0.063388355, -0.07271161, 0.0149635095, 0.076368116, -0.15619254, 0.024009814, -0.057712, 0.07814094, -0.10033206, -0.18528593, 0.0027361885, 0.020429198, -0.13332114, -0.058608726, -0.13009605, -0.01577935, 0.013206486, 0.11623247, -0.16259319, -0.022545373, -0.10592492, -0.08106096, -0.19183105, -0.033898022, -0.05568904, 0.060843345, 0.03219266, 0.10817533, -0.11695648, -0.027109064, -0.17553455, -0.116001725, -0.20318054, -0.04291229, -0.118079945, 0.16276453, 0.11393177, 0.13126458, -0.17563051, -0.09709054, -0.26739073, 0.008821588, -0.08849649, -0.12291436, 0.087053, 0.115137294, 0.04647854, 0.15912655, -0.2543279, -0.06058538, -0.26917452, 0.00084442814, -0.06714253, -0.22264662, -0.033930957, 0.087956145, 0.12315565, 0.08773209, -0.26811758, 0.068844914, -0.2491046, -0.10125962, -0.045660313, -0.14381056, 0.112852946, 0.013436488, 0.1245469, 0.029054297, -0.19383447, 5.2682153e-05, -0.15856178, 0.028797422, -0.04851455, -0.06848663, 0.108943745, 0.05125152, 0.02156676, 0.118725546, -0.18363225, 0.049371693, -0.22382827, -0.14063609, 0.035046663, -0.11255772, 0.09781208, -0.101601675, 0.030211547, 0.084955975, -0.20782208, 0.09228949, -0.1670974, -0.027374819, -0.06422251, -0.11248657, 0.13315266, -0.07366062, 0.011167549, 0.040170684, -0.11536223, 0.015166914, -0.0583431, 0.04954617, 0.0904427, -0.08055078, 0.10794288, -0.17091042, -0.06437102, 0.04538235, -0.057500973, 0.1262888, 0.02362996, -0.045948748, 0.05743747, -0.04618577, 0.158235, -0.1457061, -0.07137197, 0.047338434, -0.10944489, 0.026534686, -0.06733984, -0.007801394, 0.07228603, -0.06624548, 0.09911208, -0.06578893, -0.0745183, -0.010847726, -0.090671755, -0.019285567, -0.04646342, -0.057018694, 0.07669544, -0.04145394, 0.04184442, 0.11406936, -0.051360983, -0.05602137, 0.038678188, 0.096983306, 0.016866416, -0.086442724, 0.07852572, -0.041415673, -0.048036695, 0.054031044, 0.020226408, 0.082526445, -0.031983756, 0.06676567, -0.0042156884, -0.109810665, -0.042097304, -0.15785313, -0.005761253, 0.13469668, -0.02892445, -0.025803905, 0.06991369, 0.028703725, -0.040579345, -0.095477074, 0.089859076, -0.092442766, -0.04221964, 0.03618758, 0.12591603, 0.055244137, 0.077172525, 0.14160983, -0.073236935, -0.15416174, 0.016046073, -0.01720587, -0.09694503, 0.030206153, 0.04045017, 0.007625077, -0.01871887, 0.111537084, -0.1632739, -0.11739185, 0.01978055, -0.0010385978, -0.028158175, -0.13182783, 0.14275923, -0.0059168087, 0.03031983, 0.042709388, -0.19846547, -0.28513274, -0.009637727, 0.0090077855, -0.047923673, -0.12752949, 0.15890631, -0.09911093, 0.023776399, 0.13843699, -0.08814821, -0.15765114, 0.05575407, 0.083196186, -0.030071452, -0.086706325, 0.10413431, -0.1652428, 0.010200718, 0.110374905, -0.20337349, -0.16160563, -0.089853264, 0.01580285, -0.016074844, -0.1895364, 0.07864197, -0.08878849, -0.06873879, 0.09782239, -0.12473217, -0.22827832, -0.0032755707, 0.04059858, -0.036214672, -0.003932514, 0.1665203, -0.23387733, -0.083101764, 0.0539839, -0.21089381, -0.14881957, -0.11015309, 0.037107646, -0.022291927, -0.06537377, 0.035120316, -0.0836534, -0.03296254, 0.05286199, -0.07575397, -0.12500957, -0.06782846, -0.04985215, 0.056609217, 0.053503778, -0.09525828, -0.0152576, 0.086569645, -0.04369872, -0.023770967, -0.10208447, 0.032134324, -0.035714854, -0.008736299, 0.04842725, -0.055444296, 0.044421326, -0.07332684, 0.05260299, -0.054869026, 0.06293459, -0.024079392, 0.051482055, 0.036948115, 0.07922412, -0.04358637, 0.016919985, -0.064319685, -0.05021429, 0.077610336, 0.08203859, 0.078957506, -0.01660046, 0.0764317, 0.07437415, 0.07471303, -0.058643628, -0.08428632, -0.049892258, 0.06779813, 0.07439416, -0.039613392, 0.02228748, -0.10290192, -0.0933996, 0.0069293934, 0.043098304, -0.017137924, 0.007201337, 0.023559723, -0.030211406, -0.05254792, -0.013950989, -0.15245938, -0.052382085, -0.054006122, 0.12893884, -0.039352115, -0.06762539, -0.09406978, -0.006763704, -0.033499688, -0.025753574, -0.089174606, -0.00066744804, -0.08203117, 0.11597201, -0.1117497, -0.024657281, -0.09194561, -0.010695384, -0.17807174, -0.11449235, -0.060202304, 0.07712027, -0.04731656, 0.15952851, -0.243888, -0.074110076, -0.17511302, 0.007433445, -0.1918223, -0.09594011, 0.012827385, 0.11253275, -0.08776391, 0.21369629, -0.10989028, -0.00369097, -0.28611788, 0.0320407, -0.11351717, -0.01408084, 0.05532699, 0.094778515, -0.090447344, 0.17423679, -0.19326594, -0.031809386, -0.3206078, 0.09985034, -0.102936566, -0.10043827, -0.0055600163, 0.121921495, 0.029904509, 0.108884506, -0.11197541, 0.024382774, -0.27856675, 0.052536782, 0.047650855, -0.029579494, 0.024756646, -0.03693787, 0.020057188, 0.040312428, -0.15671943, 0.010234937, -0.2521948, 0.07354857, -0.09156288, -0.018092949, 0.016082034, -0.0052204155, -0.089245856, 0.006739745, -0.05707297, 0.008962016, -0.2824452, -0.019858284, 0.05891623, 0.0066558295, 0.17036386, -0.21766828, -0.07431334, 0.06181266, -0.08372871, 0.097555436, -0.25171667, 0.054511763, 0.077547334, -0.00032545006, 0.21428774, -0.15152441, -0.09186652, 0.03804672, -0.10703065, 0.13353835, -0.135593, -0.036231566, 0.22333553, -0.11760997, 0.09831303, -0.16658507, -0.14596713, 0.0417787, -0.16248786, 0.07191817, -0.25507548, -0.038809214, 0.22168098, -0.03557098, 0.15042026, -0.025170239, -0.16356732, 0.04361225, -0.040502116, 0.11635668, -0.16136484, 0.045141675, 0.22015215, -0.16244084, 0.010407959, 0.13355902, -0.109057814, 0.056154635, 0.0057054576, 0.10528756, -0.23335671, 0.06898454, 0.17862703, -0.13213988, 0.07338653, 0.22955033, -0.10904823, 0.046458382, -0.061380688, -0.00964335, -0.15546452, -0.0007489217, 0.093642116, -0.012660203, 0.0023056557, 0.12475355, 0.0058883997, -0.017735219, 0.07485379, 0.0486163, -0.21820064, -0.021315472, 0.14870904, -0.09582901, -0.10435204, -0.026872471, -0.034202743, 0.015493931, 0.10921505, -0.035917513, -0.17734174, -0.104503274, 0.025174767, 0.0053999815, -0.17749625, 0.02703063, 0.060642872, 0.019948263, 0.1593568, -0.026785763, -0.113767326, -0.20481126, 0.02314184, 0.011867934, -0.08067873, -0.06317457, 0.06938158, -0.034150865, 0.11868827, 0.0052281925, -0.16069914, -0.23075907, 0.119643666, -0.0105152475, -0.21484207, -0.074627236, 0.07666278, -0.08809221, 0.02781471, -0.066032656, -0.108851776, -0.20729102, -0.02588703, 0.04380973, -0.0709007, -0.0024377378, 0.009449349, -0.13563152, 0.077956095, -0.008659275, -0.21164833, -0.23391335, 0.022701727, 0.15808234, -0.15095827, -0.046843085, 0.08271595, -0.13745037, 0.03483224, 0.0022585918, -0.098505735, -0.15360364, 0.030665567, 0.035200465, -0.0047145872, -0.0346294, 0.074243784, -0.0136309825, -0.061356578, -0.06378633, -0.10832678, -0.15103106, -0.15080506, -0.011057666, -0.0450004, -0.07422687, 0.008431276, -0.055830337, -0.008743742, 0.022120943, -0.0917371, -0.10366297, -0.121543884, -0.044328533, -0.10624404, 0.06901049, -0.026566982, -0.039408643, 0.017258793, 0.005092143, -0.03076996, 0.036846515, -0.06325846, 0.0019382515, 0.029541492, -0.056525394, -0.058628064, 0.06898456, -0.072513476, 0.0009634495, -0.079886355, -0.068171754, -0.08444916, -0.04615847, -0.02204661, -0.0049768835, 0.0037098452, -0.048481345, -0.0060623214, -0.017539367, 0.07826898, 0.07053123, 0.03576649, -0.048679296, -0.003990717, 0.06554658, -0.04229828, 0.052785434, -0.077482045, -0.030734021, 0.018034562, -0.078120105, -0.06314378, -0.06777938, -0.037895985, 0.018152542, -0.12070689, -0.035145886, -0.025162457, 0.017598057, 0.010882129, -0.032907374, -0.11208946, -0.10190528, -0.1375057, -0.0040151435, -0.09215635, 0.0886166, 0.011565375, -0.0317068, 0.02152282, 0.019961847, -0.07267558, -0.021078425, -0.13417768, -0.09892485, -0.1290487, 0.13486217, -0.18393707, -0.11709904, -0.11185169, 0.030173704, -0.2655068, -0.067464575, -0.04910095, 0.04457026, -0.06163168, 0.19207914, -0.103763744, 0.03946111, -0.08950235, 0.09874822, -0.2877813, 0.07529707, -0.048874926, 0.102840506, -0.15895972, 0.17389242, -0.14842229, -0.08010548, -0.16754813, 0.2101748, -0.14238156, 0.014159185, -0.03441971, -0.0025941082, -0.10946045, 0.26004, -0.050672855, -0.027476, -0.17364901, 0.06963703, -0.107348524, 0.079831846, -0.13398246, -0.09809679, -0.1711544, 0.10861309, -0.15163115, -0.005529325, -0.28026807, 0.18758294, -0.06916213, 0.082080245, -0.09159555, -0.16233909, -0.16600844, 0.14554363, -0.13509992, 0.026637418, -0.2952028, 0.11283908, -0.021144358, 0.03684182, -0.014367879, -0.21033502, -0.22675103, 0.11290791, -0.065243915, 0.1088962, -0.3585857, 0.043689042, -0.04491986, -0.022750635, -0.07089033, -0.24339154, -0.16251238, 0.20425512, -0.12062131, 0.11697579, -0.24453352, 0.035815276, 0.0032460096, -0.045983713, 0.038693603, -0.27440816, -0.1334305, 0.073151425, -0.03823828, 0.1265204, -0.3196117, 0.12095, 0.076283865, 0.07807925, -0.0632382, -0.14867453, -0.1791571, 0.117350675, -0.04889013, 0.100850545, -0.3280456, 0.059887532, 0.029869098, -0.09252988, 0.0071835476, -0.07262407, -0.13922335, 0.059604127, -0.013080197, 0.11272497, -0.30451703, 0.109725125, 0.06786954, -0.06509467, -0.06157357, -0.12086318, -0.071739286, 0.066138856, -0.1132586, -0.024325594, -0.25636944, 0.105487175, 0.12425553, -0.004217125, -0.14510372, -0.07826863, -0.08066431, 0.024630012, -0.019355932, 0.09435204, -0.23426817, 0.058186162, 0.076220945, 0.0029899885, -0.18953188, 0.028958771, -0.035856627, -0.06857319, -0.00013408044, -0.02943694, -0.27347356, -0.010353573, 0.0314124, 0.1497909, -0.22083037, 0.0076087196, -0.033636685, -0.119887404, 0.05397858, 0.009129313, -0.21730259, 0.012106987, 0.07491616, 0.13939768, -0.25497243, 0.017228886, -0.112268105, -0.043562938, -0.011822186, 0.0067758774, -0.21014066, -0.15479004, 0.079893194, 0.055078544, -0.2469184, -0.014956896, -0.11612103, -0.14315228, 0.022747925, 0.060836427, -0.33254248, -0.05563838, 0.049722098, 0.2306319, -0.21500887, 0.025018271, 0.034356445, -0.15045336, -0.03542729, -0.10170694, -0.17314112, -0.156821, 0.035053026, 0.14294098, -0.08595468, -0.1371113, 0.025421536, 0.0047538695, -0.08909971, 0.097295664, -0.18480515, -0.061547562, -0.060883835, 0.14321662, -0.19106391, -0.021916429, -0.015975336, -0.0623306, -0.06503096, 0.0517922, -0.1386731, -0.18979308, -0.022459542, 0.15822163, -0.056440532, 0.002206574, 0.058172986, 0.00072816596, -0.029289262, -0.0005282133, -0.0040926146, -0.021015985, -0.08860612, 0.109658524, -0.024837716, 0.02171352, 0.10756192, 0.011846649, 0.0074147373, -0.034166966, -0.026863083, -0.058499962, -0.044304166, 0.058550637, 0.013954757, -0.047748137, -0.03940769, 0.04099511, -0.10227174, 0.056111064, -0.05711602, 0.017554289, 0.008742547, -0.03770013, -0.04688766, 0.011351593, 0.070912935, 0.025665343, -0.08030202, -0.071992025, 0.056055196, -0.08527837, 0.08090813, -0.054487415, -0.073408924, -0.005662732, -0.037191615, 0.04533512, -0.0025830418, 0.042658962, 0.046623193, -0.03025696, 0.085814126, 0.07802164, 0.035735026, 0.037638083, -0.030696072, -0.07035232, 0.07511944, 0.0013046935, 0.06435252, -0.03689551, 0.014481477, 0.060739048, 0.020969318, 0.05071297, -0.01498382, 0.075773135, 0.06433882, -0.052622765, -0.05292137, 0.02155966, -0.014558383, 0.06708686, -0.02115524, -0.08900485, -0.11954054, -0.06418467, -0.07499145, 0.04434511, 0.0060267826, 0.0672865, -0.11424364, 0.007746936, -0.18727085, -0.083451994, -0.18255524, 0.049861662, -0.03420288, -0.018569665, -0.014643168, 0.05139076, -0.094453484, -0.0651078, -0.21740644, -0.21076024, -0.119287185, 0.058785833, -0.113377914, -0.074620806, -0.06350346, 0.055435516, -0.25032815, 0.10576725, -0.25335196, -0.1632781, -0.17659652, 0.08548295, -0.16107708, -0.003530559, -0.2251643, 0.1782604, -0.23449136, 0.16581641, -0.18833254, -0.3249519, -0.2611071, 0.10751935, -0.1396125, -0.12579638, -0.19920915, 0.16301528, -0.1940459, 0.073376365, -0.2909693, -0.15962513, -0.3292627, 0.11163898, -0.094922476, 0.017733358, -0.22947907, 0.10405331, -0.26143798, 0.10653055, -0.22693561, -0.34451354, -0.37229508, 0.090989746, -0.20344809, -0.055352762, -0.17054117, 0.14116114, -0.28731078, 0.17952982, -0.34211951, -0.25631046, -0.23556048, 0.13282067, -0.094251186, -0.0003367822, -0.2075723, 0.15543991, -0.15635888, 0.1884444, -0.22310035, -0.28289804, -0.27129748, 0.20422755, -0.2720216, 0.00087853754, -0.20705806, 0.22325018, -0.18466163, 0.059018742, -0.26314956, -0.25212896, -0.14670257, 0.15046169, -0.26249877, -0.00089519715, -0.13428468, 0.18421185, -0.06744466, 0.1557004, -0.27728584, -0.19338179, -0.18392156, 0.08738546, -0.27741325, 0.04084554, -0.3755053, 0.20175317, -0.15964393, 0.14259191, -0.36233923, -0.2880328, -0.12493882, 0.12237287, -0.18464117, -0.012018301, -0.269904, 0.15634932, -0.07882544, 0.13385858, -0.21311326, -0.27816394, -0.10002411, -0.050073475, -0.26848245, -0.017802874, -0.29069567, 0.20874229, 0.022011416, 0.10628011, -0.3613752, -0.30756098, -0.12224303, 0.0710582, -0.16369377, -0.01168099, -0.22592196, 0.09863639, -0.079063654, 0.2020876, -0.18092147, -0.22574186, -0.15979862, -0.11475637, -0.20844434, 0.033766244, -0.3272093, 0.15019174, -0.066670686, 0.19743578, -0.21389171, -0.15924253, -0.14630677, 0.008610011, -0.25642437, -0.043520086, -0.31010592, 0.05625307, -0.03441296, 0.22010766, -0.13744311, -0.08980606, -0.19859105, 0.053755764, -0.13595977, -0.09298302, -0.27049798, -0.0529672, 0.0009932262, 0.25590396, -0.22996953, -0.08595632, -0.1880276, -0.09738347, -0.23819512, -0.02537789, -0.23704657, 0.0060827495, -0.016074661, 0.20150873, -0.23019852, -0.09779175, -0.1097355, -0.10153927, -0.15412763, -0.0058898083, -0.07403354, -0.041249916, -0.20125584, 0.1816451, -0.12882292, -0.042039804, -0.1196367, -0.040687703, -0.08760099, -0.008085779, -0.11005366, -0.034702394, -0.13319074, 0.17785098, -0.10308011, -0.12566356, -0.19301103, -0.101465344, -0.09706118, 0.078914754, -0.06570155, -0.11920034, 0.004473697, 0.025414696, -0.13972914, 0.023532862, -0.08702821, -0.061897747, -0.03726881, 0.09400915, -0.073402494, 0.04759352, -0.084394135, 0.032742027, -0.035052754, 0.04740918, 0.005154869, -0.08011426, -0.06451345, -0.047109086, -0.033975977, -0.02122555, -0.061537724, -0.051818237, -0.0047258018, -0.028500043, 0.07183333, 0.072954424, -0.03469054, -0.054291002, -0.056006126, 0.017306108, -0.013853193, -0.04062208, 0.06370091, -0.0553491, -0.08039295, 0.051871337, 0.070283376, -0.026510429, 0.031640783, -0.05011686, 0.027081206, 0.07141722, -0.028652847, 0.07773737, -0.025284968, 0.008005708, -0.05194547, -0.064232595, 0.019780025, -0.044653613, -0.08196755, 0.01818756, 0.024166271, 0.058709748, 0.030282743, -0.014319323, 0.028663352, 0.047045685, 0.034354746, 0.012768209, 0.031011082, 0.018434294, 0.05460801, 0.018925034, 0.011350207, -0.06432325, 0.004297599, -0.021346875, -0.03707354, -0.006323397, -0.04463523, -0.06102041, -0.017053906, 0.016874608, -0.06412357, -0.10371316, 0.062478106, 0.062014837, -0.0026421007, -0.053024948, -0.09559188, 0.05210432, -0.013339235, -0.069715075, -0.13416134, -0.034265622, -0.103412986, -0.09701581, -0.087568216, -0.022864258, -0.12472444, 0.0751097, -0.06532738, -0.1526926, -0.0656231, 0.040149387, -0.024349425, -0.16145864, -0.0380739, 0.09938562, -0.13388509, 0.0152165955, -0.20139341, -0.16228202, -0.043293126, 0.0016709004, -0.11127378, -0.15511638, 0.011260884, -0.015986275, -0.20957217, 0.059420206, -0.13100041, -0.16361563, -0.18730044, -0.012900204, -0.2415854, -0.124410465, -0.018752003, 0.045374736, -0.20005885, 0.06471805, -0.23574793, -0.20104678, -0.22260748, -0.08338897, -0.25005823, -0.102804534, -0.17350188, 0.09146493, -0.16338532, 0.03373536, -0.21450973, -0.26821452, -0.21886204, -0.00011793658, -0.3263789, -0.18221354, -0.08934758, 0.21847932, -0.1589221, 0.1029138, -0.16580239, -0.2254421, -0.22481917, -0.11901369, -0.32024464, -0.15273148, -0.20397364, 0.12196418, -0.13210045, 0.012347393, -0.14923209, -0.17699014, -0.19042821, -0.091318555, -0.34592956, 0.020531895, -0.13100336, 0.15691446, -0.15225789, 0.019482236, -0.25426582, -0.23824646, -0.1676701, -0.096652985, -0.27296895, -0.022495834, -0.09038191, 0.13493954, -0.23025547, 0.15814213, -0.2578372, -0.15600583, -0.13237539, -0.028297093, -0.36975247, -0.05440207, -0.2055989, 0.23916394, -0.15520382, 0.037484687, -0.16659148, -0.12657654, -0.21813202, -0.14995177, -0.43120724, -0.07188948, -0.21837513, 0.1779379, -0.17617191, 0.187949, -0.25017256, -0.09684758, -0.2068634, -0.13616192, -0.37241444, -0.021533953, -0.12435828, 0.26909864, -0.28993, 0.11274381, -0.20520829, -0.12534824, -0.20978837, -0.13146712, -0.41237918, -0.06484944, -0.26891828, 0.15077779, -0.27391127, 0.03447182, -0.2004036, -0.0692397, -0.2508289, -0.0042037005, -0.26655728, -0.0776575, -0.26445043, 0.24700747, -0.20011537, 0.102071196, -0.23442174, -0.062896125, -0.10144594, -0.099008285, -0.3421587, -0.14431746, -0.18767153, 0.19847718, -0.15105923, 0.06623939, -0.20031634, -0.044057492, -0.16382611, 0.024925254, -0.2762631, -0.014395625, -0.22185007, 0.12065935, -0.25418687, 0.11084934, -0.038917523, -0.027551094, -0.13560724, -0.069032416, -0.2697485, -0.0049037035, -0.051852435, -0.00590308, -0.16636054, 0.13548589, -0.058265254, 0.0026844777, -0.021289041, 0.04844782, -0.090810716, 0.018619135, -0.14927457, 0.07377013, -0.14708309, 0.032624643, -0.14468582, -0.010289786, -0.03755784, 0.023139792, -0.044187445, -0.037045017, -0.09716085, 0.0078102835, -0.1177053, 0.04653024, 0.026163386, 0.044411, 0.024727736, 0.034470655, -0.07051286, -0.06246041, 0.027430557, -0.005473937, -0.01179584, -0.015962481, 0.060843214, 0.01759479, -0.09448326, 0.060571983, 0.045241736, -0.057030603, 0.054495174, -0.027638664, 0.037605245, -0.013516081, 0.069006056, -0.022285085, 0.0118961735, -0.065017276, 0.005254652, -0.025781538, 0.040105924, -0.044387635, -0.010301544, -0.088451594, 0.02667994, -0.0696373, 0.01156646, 0.03329037, 0.004010178, -0.06290902, -0.06377487, -0.014327116, -0.055537887, 0.049266778, -0.017238222, -0.026881933, 0.00868766, 0.030567676, 0.06258931, 0.0074104965, -0.065411486, -0.011929736, 0.08400736, -0.039458968, -0.012975648, 0.008791767, 0.062478863, -0.08399552, 0.053975932, 0.035282567, 0.014157146, 0.017434642, -0.03840014, -0.06770605, 0.014283448, 0.07140551, 0.063066386, -0.042966597, 0.06927126, 0.001995124, 0.0012085065, 0.055994324, 0.02517175, 0.04783117, 0.017573208, -0.04474613, 0.046451606, 0.004895866, 0.049439617, -0.067968495, -0.051709823, 0.05555462, -0.07715931, 0.04552955, 0.025550798, -0.013895467, -0.05623244, -0.06402215, 0.06052523, -0.081176996, -0.07394265, -0.0036659315, 0.04319068, -0.056942746, 0.058026057, 0.057536762, -0.021675335, -0.00050899497, -0.0462608, -0.010312435, 0.055171255, 0.02711368, 0.011712549, 0.036495168, -0.058438856, -0.058543272, 0.056811925, 0.008825317, 0.0011794189, -0.068830974, 0.019531015, 0.09452757, -0.021877037, -0.1034542, -0.02558739, 0.05261765, -0.090956904, 0.011021993, -0.025540756, -0.027480211, -0.036782485, 0.10882524, 0.037860118, -0.057851616, -0.09688818, -0.009200765, -0.10061047, -0.02115763, 0.02588793, -0.11331921, 0.035060726, -0.009188484, -0.005905768, 0.055418, -0.09849459, 0.039661635, -0.056907814, -0.008066465, -0.014955141, -0.040622618, 0.014952146, 0.01535242, -0.007329139, -0.057357937, -0.101608835, -0.108788595, -0.09186676, -0.13218537, -0.062146112, -0.011303218, 0.04878686, 0.008111297, -0.092165746, -0.052311625, -0.14139074, -0.058367033, -0.11856828, -0.15000102, -0.059806548, -0.07433248, -0.038878154, 0.0014045209, -0.07493659, 0.018594638, -0.06308292, -0.09771, -0.117258064, -0.027184103, -0.04592118, -0.038593158, 0.021800399, 0.0107160825, -0.19535887, -0.06225824, -0.1871266, 0.026448153, -0.11822958, -0.01526865, -0.17371804, 0.050143883, 0.003165208, 0.17628981, -0.12986079, 0.0076444414, -0.18115301, -0.12795089, -0.045446604, -0.039213542, -0.22835642, -0.088766314, -0.12242439, 0.1616112, -0.09526938, -0.19156516, -0.195479, -0.077111244, -0.14166796, -0.09396075, -0.10389356, -0.22554481, -0.16063386, 0.11951239, -0.13348667, -0.09835527, -0.14345773, -0.07682282, 0.004997513, -0.1274217, -0.19358231, -0.11077316, -0.13932559, 